svm_type c_svc
kernel_type rbf
gamma 0.00392157
nr_class 2
total_sv 636
rho 1.00001
label 1 -1
nr_sv 315 321
SV
0.09253001632254672 0:1 1:1 4:1 9:1 10:1 11:1 12:1 17:1 20:1 25:1 26:1 33:1 36:1 41:1 42:1 47:1 49:1 52:1 53:1 54:1 55:1 56:1 57:1 58:1 59:1 60:1 61:1 62:1 63:1 65:1 67:1 69:1 78:1 79:1 83:1 84:1 85:1 86:1 87:1 88:1 89:1 93:1 94:1 109:1 114:1 115:1 116:1 117:1 118:1 119:1 120:1 121:1 122:1 123:1 124:1 125:1 126:1 127:1 130:1 131:1 132:1 133:1 134:1 135:1 136:1 137:1 139:1 140:1 143:1 144:1 145:1 147:1 148:1 153:1 154:1 155:1 156:1 157:1 159:1 160:1 161:1 163:1 164:1 165:1 166:1 167:1 169:1 175:1 177:1 192:1 193:1 208:1 209:1 212:1 213:1 214:1 215:1 216:1 217:1 218:1 219:1 220:1 221:1 224:1 225:1 226:1 227:1 228:1 229:1 230:1 231:1 232:1 233:1 234:1 235:1 236:1 237:1 238:1 239:1 240:1 241:1 242:1 243:1 244:1 245:1 246:1 247:1 248:1 249:1 250:1 251:1 252:1 255:1 
1 0:1 2:1 4:1 7:1 10:1 15:1 16:1 19:1 30:1 31:1 40:1 41:1 42:1 46:1 53:1 54:1 55:1 56:1 57:1 58:1 68:1 69:1 70:1 74:1 75:1 77:1 78:1 82:1 83:1 84:1 91:1 92:1 108:1 114:1 115:1 116:1 117:1 118:1 119:1 120:1 121:1 122:1 123:1 124:1 125:1 130:1 131:1 132:1 133:1 134:1 135:1 136:1 137:1 138:1 139:1 140:1 141:1 146:1 147:1 156:1 157:1 161:1 162:1 163:1 164:1 172:1 173:1 177:1 178:1 179:1 185:1 188:1 189:1 194:1 195:1 196:1 197:1 198:1 199:1 200:1 201:1 202:1 204:1 205:1 238:1 239:1 240:1 241:1 245:1 247:1 250:1 251:1 255:1 
1 4:1 11:1 13:1 20:1 21:1 22:1 23:1 24:1 25:1 26:1 27:1 28:1 34:1 35:1 44:1 45:1 50:1 51:1 61:1 65:1 66:1 77:1 78:1 81:1 82:1 93:1 98:1 101:1 102:1 103:1 104:1 105:1 106:1 107:1 108:1 109:1 114:1 115:1 116:1 117:1 118:1 119:1 121:1 122:1 123:1 124:1 125:1 130:1 131:1 132:1 133:1 134:1 135:1 136:1 137:1 138:1 139:1 140:1 141:1 142:1 146:1 147:1 148:1 149:1 150:1 151:1 152:1 153:1 154:1 155:1 156:1 158:1 162:1 164:1 173:1 174:1 178:1 188:1 189:1 194:1 195:1 196:1 197:1 198:1 199:1 200:1 201:1 202:1 203:1 204:1 205:1 210:1 212:1 215:1 216:1 219:1 220:1 224:1 239:1 240:1 241:1 255:1 
1 1:1 2:1 6:1 9:1 10:1 13:1 14:1 35:1 42:1 47:1 52:1 53:1 54:1 55:1 56:1 57:1 58:1 59:1 60:1 61:1 62:1 64:1 65:1 66:1 67:1 68:1 69:1 70:1 71:1 72:1 73:1 75:1 76:1 78:1 79:1 80:1 82:1 83:1 84:1 92:1 95:1 100:1 101:1 102:1 103:1 104:1 105:1 106:1 107:1 108:1 109:1 111:1 112:1 113:1 115:1 116:1 117:1 118:1 119:1 120:1 121:1 122:1 123:1 124:1 127:1 128:1 132:1 138:1 150:1 151:1 152:1 175:1 176:1 182:1 183:1 184:1 185:1 186:1 187:1 188:1 191:1 192:1 198:1 199:1 200:1 203:1 204:1 205:1 206:1 207:1 208:1 209:1 210:1 211:1 212:1 213:1 214:1 215:1 216:1 217:1 218:1 219:1 220:1 221:1 222:1 223:1 225:1 226:1 227:1 228:1 229:1 230:1 231:1 232:1 233:1 234:1 235:1 236:1 237:1 238:1 240:1 241:1 242:1 243:1 244:1 245:1 246:1 247:1 248:1 249:1 250:1 251:1 252:1 253:1 
0.1558739522949095 2:1 5:1 10:1 11:1 14:1 15:1 18:1 19:1 20:1 21:1 25:1 38:1 39:1 40:1 41:1 43:1 47:1 51:1 52:1 53:1 54:1 55:1 56:1 57:1 58:1 59:1 60:1 61:1 64:1 65:1 66:1 69:1 84:1 87:1 88:1 89:1 93:1 96:1 98:1 99:1 109:1 111:1 112:1 113:1 119:1 123:1 124:1 126:1 127:1 128:1 129:1 131:1 133:1 134:1 135:1 136:1 138:1 139:1 140:1 141:1 144:1 145:1 146:1 147:1 155:1 156:1 160:1 162:1 163:1 164:1 165:1 166:1 167:1 168:1 169:1 171:1 172:1 175:1 191:1 192:1 196:1 197:1 198:1 199:1 200:1 201:1 202:1 203:1 207:1 208:1 211:1 224:1 225:1 226:1 227:1 228:1 229:1 230:1 231:1 232:1 233:1 234:1 235:1 236:1 237:1 238:1 239:1 240:1 241:1 242:1 243:1 244:1 245:1 246:1 247:1 248:1 249:1 250:1 251:1 252:1 253:1 254:1 255:1 
1 0:1 2:1 3:1 7:1 9:1 12:1 13:1 14:1 15:1 17:1 19:1 21:1 23:1 24:1 25:1 31:1 33:1 35:1 36:1 37:1 38:1 40:1 41:1 42:1 43:1 48:1 49:1 54:1 59:1 60:1 76:1 81:1 83:1 84:1 85:1 86:1 87:1 88:1 89:1 90:1 91:1 92:1 93:1 94:1 97:1 98:1 100:1 101:1 102:1 103:1 104:1 105:1 106:1 107:1 108:1 111:1 112:1 113:1 127:1 129:1 145:1 147:1 148:1 149:1 151:1 152:1 153:1 155:1 157:1 159:1 160:1 161:1 164:1 165:1 166:1 167:1 168:1 169:1 170:1 171:1 172:1 175:1 176:1 191:1 192:1 203:1 204:1 207:1 220:1 223:1 224:1 239:1 241:1 242:1 245:1 247:1 254:1 255:1 
0.0717229539670208 1:1 2:1 3:1 6:1 10:1 11:1 15:1 17:1 19:1 27:1 28:1 31:1 33:1 36:1 37:1 38:1 39:1 40:1 41:1 42:1 44:1 48:1 52:1 53:1 56:1 57:1 58:1 63:1 64:1 65:1 67:1 72:1 73:1 74:1 75:1 79:1 83:1 85:1 87:1 88:1 89:1 90:1 91:1 94:1 97:1 98:1 99:1 100:1 101:1 102:1 103:1 104:1 107:1 113:1 114:1 115:1 122:1 123:1 124:1 126:1 127:1 129:1 130:1 131:1 132:1 133:1 134:1 135:1 136:1 137:1 138:1 139:1 140:1 142:1 143:1 144:1 150:1 155:1 159:1 160:1 173:1 174:1 175:1 176:1 181:1 182:1 183:1 189:1 190:1 191:1 192:1 195:1 197:1 198:1 199:1 202:1 203:1 205:1 206:1 207:1 208:1 221:1 222:1 223:1 224:1 237:1 238:1 239:1 240:1 241:1 242:1 243:1 244:1 246:1 247:1 248:1 249:1 250:1 253:1 254:1 255:1 
0.4549672107862829 5:1 9:1 15:1 18:1 24:1 25:1 27:1 28:1 31:1 32:1 40:1 41:1 48:1 49:1 50:1 51:1 52:1 53:1 54:1 55:1 60:1 63:1 65:1 66:1 67:1 68:1 69:1 70:1 71:1 72:1 73:1 74:1 75:1 76:1 81:1 82:1 83:1 84:1 87:1 88:1 89:1 90:1 91:1 92:1 93:1 94:1 95:1 97:1 98:1 107:1 108:1 113:1 114:1 115:1 117:1 118:1 119:1 130:1 131:1 132:1 133:1 135:1 136:1 137:1 141:1 142:1 143:1 146:1 147:1 148:1 149:1 150:1 152:1 156:1 157:1 158:1 159:1 162:1 164:1 168:1 169:1 170:1 176:1 177:1 179:1 190:1 191:1 195:1 211:1 212:1 213:1 214:1 215:1 216:1 217:1 218:1 221:1 224:1 225:1 226:1 227:1 228:1 233:1 234:1 235:1 236:1 237:1 238:1 239:1 240:1 241:1 242:1 243:1 244:1 245:1 246:1 247:1 248:1 249:1 250:1 251:1 252:1 253:1 254:1 255:1 
1 0:1 1:1 2:1 7:1 17:1 18:1 32:1 33:1 34:1 48:1 56:1 57:1 58:1 60:1 68:1 69:1 70:1 71:1 72:1 74:1 75:1 76:1 77:1 78:1 79:1 83:1 84:1 85:1 86:1 87:1 88:1 93:1 94:1 99:1 108:1 109:1 110:1 114:1 115:1 116:1 117:1 118:1 119:1 120:1 121:1 122:1 123:1 124:1 125:1 126:1 127:1 129:1 130:1 131:1 132:1 133:1 134:1 135:1 136:1 137:1 140:1 143:1 154:1 155:1 156:1 157:1 159:1 160:1 161:1 162:1 163:1 164:1 165:1 166:1 167:1 168:1 169:1 170:1 171:1 172:1 173:1 175:1 178:1 179:1 180:1 192:1 199:1 200:1 201:1 202:1 203:1 208:1 219:1 220:1 221:1 222:1 223:1 226:1 227:1 228:1 229:1 230:1 231:1 234:1 235:1 236:1 237:1 238:1 239:1 240:1 241:1 242:1 246:1 247:1 248:1 249:1 250:1 
1 2:1 6:1 7:1 8:1 16:1 18:1 19:1 20:1 22:1 23:1 24:1 25:1 26:1 27:1 28:1 29:1 33:1 34:1 35:1 36:1 37:1 38:1 39:1 40:1 41:1 42:1 43:1 44:1 45:1 46:1 47:1 49:1 50:1 51:1 62:1 63:1 64:1 65:1 69:1 70:1 71:1 72:1 73:1 74:1 75:1 77:1 80:1 85:1 86:1 87:1 88:1 89:1 90:1 91:1 92:1 101:1 102:1 110:1 111:1 112:1 114:1 124:1 126:1 127:1 128:1 130:1 131:1 132:1 134:1 135:1 136:1 137:1 138:1 139:1 140:1 141:1 142:1 143:1 144:1 147:1 148:1 149:1 151:1 152:1 153:1 154:1 159:1 160:1 161:1 168:1 169:1 175:1 176:1 191:1 196:1 205:1 219:1 220:1 221:1 222:1 223:1 224:1 225:1 226:1 227:1 228:1 229:1 230:1 231:1 232:1 233:1 234:1 235:1 236:1 237:1 238:1 239:1 240:1 241:1 242:1 243:1 244:1 245:1 246:1 247:1 248:1 249:1 250:1 251:1 252:1 253:1 254:1 255:1 
0.04760489204929723 5:1 19:1 20:1 21:1 22:1 23:1 24:1 33:1 34:1 35:1 36:1 37:1 38:1 39:1 40:1 41:1 42:1 43:1 44:1 45:1 49:1 51:1 52:1 57:1 61:1 62:1 63:1 64:1 69:1 71:1 72:1 73:1 82:1 92:1 93:1 97:1 98:1 99:1 100:1 101:1 102:1 103:1 104:1 105:1 106:1 107:1 108:1 109:1 110:1 112:1 113:1 114:1 126:1 127:1 128:1 129:1 144:1 147:1 159:1 161:1 162:1 174:1 175:1 179:1 180:1 181:1 182:1 183:1 184:1 185:1 186:1 187:1 188:1 191:1 192:1 207:1 211:1 212:1 213:1 214:1 215:1 216:1 217:1 218:1 219:1 223:1 224:1 225:1 235:1 236:1 237:1 238:1 239:1 240:1 241:1 242:1 243:1 244:1 245:1 246:1 247:1 248:1 249:1 250:1 251:1 252:1 253:1 254:1 255:1 
0.6297550138080968 0:1 2:1 4:1 6:1 7:1 11:1 12:1 15:1 16:1 18:1 22:1 28:1 29:1 30:1 31:1 33:1 34:1 35:1 36:1 37:1 38:1 42:1 43:1 48:1 53:1 54:1 55:1 56:1 57:1 58:1 59:1 60:1 61:1 62:1 63:1 68:1 77:1 81:1 82:1 88:1 94:1 95:1 96:1 109:1 110:1 111:1 112:1 113:1 114:1 115:1 116:1 117:1 118:1 119:1 120:1 121:1 122:1 123:1 124:1 127:1 129:1 142:1 143:1 144:1 145:1 146:1 147:1 148:1 149:1 150:1 152:1 153:1 154:1 155:1 160:1 166:1 167:1 168:1 175:1 176:1 190:1 192:1 195:1 208:1 209:1 224:1 225:1 226:1 227:1 228:1 229:1 230:1 231:1 232:1 233:1 234:1 235:1 236:1 237:1 238:1 239:1 240:1 242:1 243:1 244:1 245:1 246:1 247:1 248:1 249:1 250:1 251:1 252:1 253:1 254:1 255:1 
1 0:1 1:1 2:1 3:1 6:1 8:1 10:1 12:1 14:1 15:1 16:1 22:1 24:1 26:1 27:1 28:1 29:1 31:1 36:1 37:1 38:1 39:1 40:1 41:1 42:1 43:1 45:1 51:1 52:1 62:1 67:1 77:1 81:1 82:1 83:1 84:1 85:1 86:1 87:1 88:1 89:1 90:1 91:1 92:1 96:1 99:1 100:1 101:1 102:1 103:1 104:1 105:1 106:1 107:1 109:1 110:1 112:1 126:1 127:1 142:1 144:1 146:1 150:1 151:1 155:1 156:1 158:1 160:1 163:1 164:1 165:1 167:1 168:1 169:1 170:1 171:1 174:1 175:1 176:1 190:1 191:1 192:1 195:1 196:1 207:1 208:1 211:1 223:1 224:1 239:1 240:1 241:1 248:1 250:1 255:1 
1 4:1 8:1 11:1 14:1 16:1 20:1 21:1 24:1 25:1 27:1 28:1 29:1 30:1 32:1 33:1 36:1 37:1 43:1 44:1 46:1 48:1 54:1 58:1 59:1 60:1 61:1 62:1 66:1 67:1 68:1 69:1 70:1 75:1 76:1 77:1 78:1 82:1 83:1 84:1 85:1 86:1 88:1 90:1 92:1 93:1 94:1 98:1 104:1 105:1 107:1 108:1 109:1 132:1 133:1 134:1 136:1 142:1 148:1 149:1 150:1 153:1 156:1 157:1 158:1 161:1 164:1 165:1 166:1 168:1 169:1 170:1 176:1 177:1 184:1 185:1 186:1 189:1 190:1 193:1 207:1 223:1 224:1 225:1 226:1 227:1 228:1 229:1 230:1 231:1 232:1 233:1 234:1 235:1 240:1 243:1 244:1 245:1 246:1 247:1 248:1 249:1 250:1 251:1 252:1 253:1 254:1 255:1 
1 0:1 1:1 2:1 4:1 12:1 13:1 14:1 15:1 16:1 17:1 18:1 31:1 33:1 34:1 37:1 38:1 39:1 40:1 41:1 42:1 43:1 44:1 47:1 49:1 52:1 54:1 55:1 56:1 59:1 60:1 64:1 66:1 77:1 83:1 84:1 85:1 89:1 90:1 91:1 92:1 93:1 94:1 95:1 96:1 97:1 98:1 99:1 100:1 101:1 102:1 103:1 104:1 105:1 106:1 107:1 108:1 109:1 111:1 113:1 114:1 123:1 124:1 125:1 126:1 128:1 129:1 141:1 142:1 143:1 144:1 145:1 147:1 148:1 149:1 153:1 154:1 155:1 157:1 158:1 159:1 166:1 167:1 168:1 175:1 176:1 179:1 182:1 183:1 184:1 188:1 191:1 192:1 195:1 196:1 201:1 202:1 203:1 207:1 208:1 212:1 220:1 223:1 239:1 240:1 241:1 245:1 246:1 248:1 249:1 250:1 255:1 
0.8970044788504911 3:1 7:1 8:1 13:1 15:1 16:1 19:1 23:1 24:1 32:1 33:1 35:1 39:1 40:1 44:1 48:1 51:1 56:1 57:1 58:1 59:1 60:1 61:1 62:1 63:1 66:1 69:1 70:1 71:1 72:1 73:1 74:1 75:1 76:1 77:1 78:1 79:1 81:1 83:1 85:1 88:1 89:1 90:1 91:1 93:1 95:1 101:1 104:1 106:1 112:1 113:1 116:1 120:1 121:1 122:1 123:1 124:1 125:1 126:1 127:1 129:1 130:1 131:1 132:1 133:1 136:1 137:1 138:1 139:1 141:1 142:1 147:1 148:1 149:1 156:1 157:1 169:1 171:1 176:1 177:1 178:1 185:1 190:1 191:1 192:1 193:1 194:1 209:1 210:1 214:1 224:1 225:1 226:1 240:1 241:1 242:1 243:1 244:1 245:1 246:1 247:1 248:1 249:1 250:1 251:1 252:1 253:1 254:1 255:1 
1 3:1 5:1 9:1 10:1 11:1 12:1 17:1 18:1 19:1 38:1 39:1 53:1 54:1 55:1 56:1 57:1 58:1 59:1 64:1 65:1 68:1 69:1 70:1 71:1 72:1 73:1 74:1 75:1 76:1 79:1 80:1 84:1 85:1 86:1 87:1 89:1 90:1 91:1 92:1 93:1 94:1 95:1 111:1 115:1 116:1 117:1 118:1 119:1 120:1 121:1 122:1 123:1 124:1 125:1 129:1 130:1 131:1 132:1 133:1 134:1 135:1 136:1 137:1 138:1 139:1 140:1 141:1 142:1 144:1 145:1 148:1 159:1 160:1 161:1 163:1 164:1 165:1 172:1 173:1 174:1 175:1 176:1 177:1 180:1 181:1 182:1 184:1 186:1 187:1 188:1 191:1 192:1 193:1 194:1 195:1 196:1 200:1 201:1 207:1 208:1 223:1 224:1 239:1 241:1 255:1 
1 0:1 4:1 6:1 8:1 9:1 24:1 25:1 32:1 33:1 34:1 36:1 37:1 45:1 46:1 47:1 48:1 49:1 50:1 56:1 57:1 58:1 59:1 60:1 61:1 62:1 63:1 64:1 67:1 68:1 69:1 70:1 71:1 72:1 86:1 87:1 88:1 92:1 93:1 94:1 95:1 96:1 97:1 98:1 99:1 102:1 105:1 106:1 107:1 110:1 111:1 112:1 114:1 115:1 117:1 128:1 129:1 135:1 136:1 137:1 138:1 139:1 140:1 142:1 143:1 146:1 147:1 148:1 149:1 150:1 151:1 152:1 153:1 154:1 155:1 156:1 161:1 162:1 163:1 164:1 165:1 166:1 175:1 182:1 183:1 184:1 187:1 191:1 192:1 195:1 207:1 208:1 211:1 212:1 213:1 215:1 224:1 226:1 227:1 228:1 229:1 230:1 231:1 232:1 233:1 234:1 235:1 236:1 237:1 238:1 239:1 240:1 241:1 242:1 243:1 244:1 246:1 247:1 248:1 249:1 252:1 253:1 254:1 255:1 
1 0:1 1:1 4:1 5:1 6:1 7:1 10:1 11:1 13:1 16:1 17:1 21:1 22:1 23:1 26:1 27:1 28:1 30:1 31:1 33:1 36:1 37:1 38:1 39:1 40:1 44:1 45:1 46:1 49:1 50:1 51:1 52:1 53:1 54:1 55:1 56:1 60:1 65:1 66:1 67:1 68:1 69:1 70:1 71:1 72:1 75:1 78:1 79:1 81:1 82:1 85:1 86:1 87:1 88:1 91:1 93:1 96:1 97:1 98:1 99:1 100:1 103:1 104:1 105:1 106:1 107:1 109:1 111:1 113:1 114:1 115:1 116:1 117:1 118:1 119:1 120:1 121:1 122:1 123:1 124:1 126:1 127:1 129:1 140:1 141:1 142:1 143:1 145:1 156:1 157:1 158:1 159:1 165:1 166:1 167:1 168:1 169:1 174:1 175:1 179:1 180:1 191:1 192:1 193:1 194:1 202:1 204:1 205:1 211:1 212:1 213:1 214:1 215:1 216:1 217:1 218:1 219:1 220:1 222:1 223:1 224:1 225:1 238:1 239:1 240:1 241:1 255:1 
1 0:1 1:1 3:1 4:1 5:1 8:1 9:1 12:1 13:1 15:1 21:1 22:1 23:1 24:1 25:1 26:1 27:1 29:1 31:1 33:1 34:1 36:1 37:1 38:1 39:1 41:1 42:1 44:1 47:1 48:1 49:1 51:1 52:1 53:1 55:1 56:1 57:1 58:1 60:1 68:1 69:1 70:1 72:1 73:1 74:1 77:1 80:1 82:1 84:1 85:1 86:1 87:1 88:1 89:1 90:1 94:1 110:1 111:1 114:1 115:1 116:1 117:1 118:1 119:1 120:1 121:1 122:1 123:1 124:1 125:1 126:1 127:1 130:1 132:1 133:1 134:1 135:1 136:1 137:1 138:1 139:1 142:1 145:1 146:1 147:1 148:1 149:1 150:1 151:1 152:1 153:1 154:1 155:1 156:1 157:1 158:1 161:1 162:1 173:1 174:1 177:1 178:1 179:1 180:1 181:1 182:1 183:1 184:1 185:1 186:1 187:1 188:1 189:1 190:1 193:1 194:1 195:1 196:1 197:1 199:1 200:1 201:1 202:1 203:1 204:1 205:1 206:1 210:1 218:1 221:1 222:1 224:1 240:1 241:1 
1 3:1 11:1 17:1 19:1 20:1 21:1 22:1 23:1 24:1 25:1 26:1 27:1 33:1 48:1 49:1 50:1 60:1 65:1 66:1 76:1 77:1 78:1 98:1 99:1 100:1 101:1 102:1 103:1 104:1 105:1 106:1 107:1 108:1 113:1 114:1 115:1 116:1 117:1 121:1 122:1 123:1 124:1 125:1 129:1 130:1 131:1 132:1 133:1 134:1 135:1 136:1 137:1 138:1 139:1 140:1 141:1 145:1 148:1 149:1 150:1 151:1 152:1 153:1 154:1 155:1 156:1 157:1 161:1 172:1 173:1 177:1 178:1 179:1 180:1 187:1 188:1 189:1 193:1 195:1 197:1 198:1 199:1 200:1 201:1 202:1 203:1 204:1 205:1 211:1 214:1 215:1 216:1 219:1 220:1 224:1 239:1 240:1 254:1 255:1 
1 0:1 1:1 2:1 3:1 8:1 9:1 13:1 14:1 20:1 21:1 22:1 23:1 24:1 25:1 28:1 29:1 30:1 31:1 35:1 40:1 41:1 42:1 43:1 44:1 45:1 46:1 47:1 50:1 51:1 52:1 53:1 54:1 55:1 56:1 57:1 58:1 59:1 60:1 62:1 63:1 64:1 66:1 67:1 68:1 69:1 70:1 71:1 72:1 73:1 74:1 75:1 76:1 78:1 79:1 82:1 97:1 98:1 99:1 100:1 101:1 102:1 103:1 104:1 105:1 106:1 107:1 108:1 109:1 110:1 111:1 113:1 114:1 122:1 123:1 124:1 125:1 126:1 127:1 128:1 129:1 130:1 132:1 133:1 134:1 135:1 136:1 137:1 138:1 139:1 140:1 141:1 142:1 144:1 145:1 146:1 151:1 155:1 156:1 157:1 158:1 161:1 162:1 163:1 164:1 165:1 170:1 174:1 175:1 182:1 183:1 184:1 198:1 199:1 200:1 211:1 212:1 213:1 218:1 219:1 239:1 240:1 241:1 244:1 254:1 255:1 
1 0:1 9:1 10:1 11:1 12:1 13:1 14:1 15:1 16:1 19:1 20:1 25:1 32:1 35:1 37:1 51:1 52:1 55:1 56:1 57:1 58:1 62:1 64:1 66:1 67:1 71:1 72:1 74:1 75:1 76:1 78:1 79:1 82:1 88:1 91:1 93:1 98:1 99:1 100:1 101:1 102:1 103:1 104:1 108:1 114:1 115:1 116:1 117:1 118:1 119:1 120:1 121:1 122:1 123:1 124:1 125:1 131:1 132:1 133:1 134:1 135:1 136:1 137:1 138:1 139:1 140:1 141:1 142:1 145:1 146:1 147:1 148:1 151:1 153:1 154:1 155:1 156:1 157:1 158:1 160:1 162:1 163:1 164:1 172:1 173:1 174:1 178:1 179:1 180:1 181:1 182:1 183:1 184:1 185:1 186:1 187:1 188:1 189:1 193:1 195:1 199:1 200:1 201:1 202:1 204:1 211:1 212:1 213:1 214:1 219:1 220:1 221:1 223:1 224:1 239:1 240:1 241:1 254:1 255:1 
0.1046151623390704 1:1 4:1 5:1 7:1 10:1 17:1 20:1 21:1 23:1 25:1 29:1 31:1 40:1 47:1 48:1 49:1 50:1 52:1 59:1 62:1 63:1 65:1 69:1 70:1 75:1 77:1 78:1 80:1 83:1 84:1 85:1 86:1 87:1 88:1 89:1 90:1 91:1 95:1 98:1 99:1 100:1 101:1 102:1 103:1 104:1 106:1 111:1 117:1 118:1 128:1 131:1 132:1 136:1 146:1 148:1 149:1 152:1 155:1 156:1 157:1 160:1 165:1 167:1 168:1 169:1 171:1 176:1 190:1 191:1 195:1 206:1 207:1 219:1 220:1 225:1 226:1 227:1 228:1 229:1 230:1 231:1 232:1 233:1 234:1 235:1 236:1 237:1 238:1 239:1 240:1 241:1 242:1 243:1 244:1 245:1 246:1 247:1 248:1 249:1 250:1 251:1 252:1 253:1 254:1 255:1 
1 1:1 2:1 3:1 6:1 8:1 10:1 13:1 14:1 17:1 18:1 19:1 23:1 29:1 30:1 33:1 37:1 38:1 40:1 41:1 45:1 46:1 49:1 52:1 53:1 54:1 55:1 56:1 57:1 58:1 59:1 61:1 65:1 67:1 68:1 70:1 71:1 72:1 73:1 74:1 75:1 77:1 78:1 81:1 83:1 84:1 85:1 89:1 90:1 91:1 93:1 94:1 95:1 96:1 97:1 99:1 100:1 111:1 112:1 114:1 115:1 116:1 117:1 118:1 119:1 120:1 121:1 122:1 123:1 124:1 126:1 127:1 128:1 129:1 130:1 136:1 137:1 141:1 142:1 143:1 144:1 147:1 153:1 154:1 156:1 157:1 158:1 159:1 164:1 167:1 171:1 176:1 182:1 183:1 184:1 186:1 191:1 194:1 198:1 199:1 200:1 206:1 207:1 210:1 211:1 212:1 213:1 214:1 218:1 219:1 220:1 222:1 223:1 224:1 238:1 239:1 240:1 254:1 255:1 
0.360632301186964 1:1 2:1 3:1 4:1 5:1 6:1 8:1 9:1 13:1 15:1 17:1 29:1 30:1 35:1 36:1 37:1 38:1 39:1 40:1 41:1 42:1 48:1 57:1 58:1 59:1 63:1 66:1 76:1 77:1 97:1 98:1 99:1 100:1 101:1 102:1 103:1 104:1 105:1 106:1 107:1 108:1 109:1 113:1 114:1 115:1 116:1 117:1 118:1 119:1 120:1 121:1 122:1 123:1 124:1 125:1 126:1 130:1 131:1 132:1 133:1 134:1 135:1 136:1 137:1 138:1 139:1 140:1 141:1 142:1 148:1 157:1 158:1 161:1 162:1 163:1 164:1 165:1 169:1 172:1 173:1 174:1 175:1 181:1 182:1 183:1 184:1 185:1 186:1 187:1 188:1 200:1 201:1 202:1 223:1 239:1 240:1 241:1 242:1 255:1 
1 0:1 1:1 2:1 3:1 4:1 5:1 6:1 7:1 8:1 9:1 10:1 11:1 12:1 20:1 47:1 48:1 49:1 50:1 53:1 56:1 62:1 64:1 65:1 66:1 71:1 72:1 75:1 76:1 77:1 78:1 84:1 86:1 87:1 88:1 89:1 90:1 91:1 92:1 93:1 94:1 95:1 96:1 97:1 98:1 99:1 100:1 110:1 126:1 127:1 134:1 139:1 140:1 141:1 142:1 144:1 146:1 147:1 149:1 150:1 151:1 152:1 153:1 154:1 155:1 156:1 157:1 160:1 161:1 162:1 163:1 164:1 165:1 166:1 167:1 168:1 169:1 170:1 171:1 172:1 176:1 178:1 179:1 180:1 181:1 182:1 183:1 184:1 188:1 192:1 209:1 226:1 227:1 228:1 229:1 234:1 235:1 236:1 237:1 238:1 239:1 240:1 241:1 242:1 243:1 244:1 245:1 246:1 247:1 248:1 249:1 250:1 251:1 252:1 253:1 254:1 255:1 
0.233069268557994 0:1 1:1 8:1 9:1 13:1 15:1 16:1 17:1 29:1 36:1 37:1 38:1 39:1 40:1 41:1 42:1 43:1 45:1 48:1 49:1 52:1 53:1 54:1 55:1 56:1 57:1 58:1 59:1 69:1 70:1 71:1 73:1 74:1 75:1 80:1 82:1 83:1 84:1 85:1 86:1 87:1 88:1 89:1 90:1 91:1 92:1 94:1 97:1 98:1 99:1 100:1 101:1 102:1 103:1 104:1 105:1 106:1 107:1 108:1 109:1 112:1 126:1 127:1 128:1 135:1 141:1 142:1 143:1 144:1 146:1 149:1 150:1 151:1 156:1 157:1 158:1 159:1 160:1 165:1 174:1 175:1 176:1 179:1 180:1 181:1 182:1 183:1 184:1 185:1 186:1 187:1 190:1 191:1 203:1 206:1 207:1 208:1 222:1 223:1 224:1 238:1 239:1 241:1 243:1 244:1 246:1 247:1 249:1 250:1 251:1 254:1 255:1 
1 0:1 1:1 2:1 5:1 11:1 12:1 14:1 24:1 25:1 26:1 31:1 32:1 34:1 35:1 36:1 37:1 38:1 39:1 40:1 41:1 42:1 43:1 44:1 45:1 47:1 48:1 61:1 63:1 66:1 67:1 69:1 70:1 72:1 73:1 77:1 78:1 93:1 98:1 99:1 100:1 101:1 102:1 103:1 104:1 105:1 106:1 107:1 108:1 109:1 110:1 111:1 112:1 130:1 131:1 132:1 133:1 140:1 141:1 142:1 144:1 150:1 151:1 152:1 153:1 154:1 155:1 159:1 168:1 169:1 179:1 190:1 191:1 208:1 209:1 210:1 211:1 212:1 213:1 214:1 215:1 216:1 217:1 218:1 219:1 220:1 221:1 222:1 224:1 225:1 226:1 227:1 228:1 229:1 230:1 231:1 232:1 233:1 234:1 235:1 236:1 237:1 238:1 240:1 241:1 242:1 243:1 244:1 245:1 246:1 247:1 248:1 249:1 250:1 251:1 252:1 253:1 254:1 
1 1:1 2:1 3:1 4:1 5:1 8:1 9:1 10:1 16:1 17:1 18:1 19:1 20:1 21:1 22:1 23:1 24:1 25:1 26:1 27:1 28:1 29:1 30:1 31:1 33:1 34:1 44:1 45:1 46:1 47:1 51:1 52:1 53:1 54:1 55:1 56:1 57:1 58:1 61:1 62:1 63:1 67:1 73:1 75:1 77:1 78:1 79:1 84:1 88:1 92:1 95:1 98:1 99:1 100:1 101:1 102:1 103:1 104:1 105:1 106:1 107:1 108:1 110:1 111:1 113:1 114:1 118:1 119:1 120:1 121:1 122:1 127:1 130:1 132:1 138:1 143:1 159:1 167:1 168:1 175:1 191:1 192:1 196:1 198:1 207:1 222:1 223:1 224:1 225:1 226:1 227:1 228:1 229:1 230:1 231:1 232:1 233:1 234:1 235:1 236:1 237:1 238:1 239:1 240:1 242:1 243:1 244:1 245:1 246:1 247:1 248:1 250:1 251:1 253:1 254:1 
1 6:1 13:1 19:1 20:1 37:1 38:1 39:1 40:1 41:1 42:1 43:1 44:1 45:1 46:1 47:1 49:1 52:1 53:1 54:1 55:1 56:1 57:1 58:1 59:1 60:1 62:1 63:1 66:1 67:1 68:1 69:1 70:1 71:1 72:1 73:1 74:1 75:1 76:1 77:1 78:1 79:1 80:1 85:1 92:1 93:1 96:1 97:1 99:1 100:1 101:1 102:1 103:1 104:1 105:1 106:1 107:1 108:1 109:1 110:1 112:1 114:1 115:1 116:1 124:1 125:1 126:1 128:1 131:1 132:1 133:1 139:1 140:1 141:1 143:1 144:1 151:1 152:1 159:1 160:1 175:1 176:1 192:1 193:1 194:1 195:1 196:1 197:1 198:1 199:1 200:1 201:1 202:1 203:1 204:1 205:1 206:1 207:1 208:1 209:1 210:1 211:1 212:1 213:1 214:1 215:1 216:1 217:1 218:1 219:1 220:1 221:1 222:1 223:1 224:1 225:1 226:1 228:1 229:1 230:1 231:1 232:1 233:1 234:1 235:1 236:1 237:1 238:1 
0.01234735492933312 1:1 5:1 7:1 10:1 11:1 13:1 15:1 17:1 20:1 21:1 22:1 23:1 24:1 25:1 26:1 27:1 28:1 29:1 31:1 33:1 34:1 39:1 40:1 41:1 42:1 43:1 47:1 48:1 50:1 51:1 55:1 56:1 57:1 58:1 59:1 60:1 62:1 71:1 72:1 73:1 79:1 80:1 81:1 83:1 84:1 85:1 86:1 87:1 88:1 89:1 90:1 91:1 92:1 94:1 95:1 96:1 97:1 101:1 103:1 104:1 105:1 106:1 107:1 108:1 110:1 111:1 112:1 119:1 120:1 121:1 122:1 125:1 126:1 127:1 128:1 129:1 130:1 141:1 142:1 143:1 145:1 146:1 147:1 156:1 157:1 160:1 162:1 163:1 164:1 165:1 166:1 168:1 169:1 170:1 171:1 172:1 173:1 175:1 181:1 182:1 183:1 184:1 185:1 186:1 187:1 191:1 192:1 198:1 199:1 200:1 207:1 208:1 223:1 224:1 239:1 240:1 241:1 242:1 243:1 244:1 245:1 246:1 247:1 248:1 249:1 250:1 251:1 252:1 255:1 
1 1:1 4:1 6:1 7:1 8:1 9:1 15:1 17:1 18:1 19:1 20:1 21:1 22:1 23:1 24:1 25:1 26:1 27:1 28:1 29:1 30:1 31:1 33:1 35:1 36:1 39:1 40:1 43:1 46:1 47:1 49:1 54:1 55:1 56:1 60:1 63:1 64:1 66:1 69:1 70:1 72:1 75:1 76:1 79:1 80:1 81:1 82:1 85:1 89:1 96:1 97:1 98:1 103:1 105:1 106:1 107:1 109:1 114:1 119:1 120:1 121:1 125:1 126:1 128:1 129:1 130:1 132:1 133:1 134:1 135:1 136:1 137:1 140:1 141:1 142:1 146:1 147:1 148:1 156:1 157:1 160:1 163:1 164:1 165:1 166:1 167:1 168:1 169:1 170:1 171:1 172:1 173:1 175:1 182:1 183:1 184:1 186:1 187:1 192:1 194:1 195:1 196:1 204:1 207:1 208:1 223:1 224:1 239:1 240:1 241:1 242:1 243:1 244:1 245:1 246:1 247:1 248:1 249:1 250:1 251:1 255:1 
0.8121010620056685 10:1 12:1 15:1 16:1 18:1 19:1 20:1 22:1 26:1 29:1 32:1 36:1 37:1 38:1 39:1 40:1 41:1 42:1 45:1 46:1 48:1 49:1 50:1 52:1 53:1 54:1 55:1 56:1 57:1 58:1 61:1 62:1 63:1 64:1 65:1 67:1 68:1 69:1 70:1 71:1 72:1 73:1 74:1 75:1 79:1 98:1 99:1 100:1 101:1 102:1 103:1 104:1 105:1 106:1 107:1 108:1 109:1 113:1 114:1 115:1 116:1 117:1 118:1 119:1 120:1 121:1 122:1 123:1 124:1 125:1 126:1 129:1 130:1 131:1 132:1 133:1 134:1 135:1 136:1 137:1 138:1 139:1 141:1 142:1 145:1 146:1 147:1 148:1 155:1 156:1 157:1 158:1 163:1 164:1 165:1 166:1 167:1 168:1 170:1 171:1 172:1 183:1 184:1 185:1 193:1 194:1 195:1 196:1 203:1 204:1 205:1 206:1 240:1 241:1 242:1 243:1 244:1 245:1 246:1 247:1 248:1 249:1 250:1 251:1 252:1 253:1 254:1 255:1 
1 4:1 5:1 6:1 7:1 10:1 14:1 18:1 19:1 20:1 24:1 30:1 31:1 33:1 34:1 37:1 38:1 39:1 40:1 46:1 47:1 48:1 49:1 54:1 55:1 56:1 57:1 58:1 59:1 60:1 62:1 64:1 65:1 68:1 69:1 70:1 71:1 73:1 80:1 81:1 83:1 84:1 85:1 87:1 88:1 89:1 93:1 94:1 95:1 96:1 97:1 99:1 102:1 103:1 105:1 109:1 111:1 112:1 124:1 126:1 127:1 129:1 130:1 131:1 132:1 133:1 134:1 135:1 136:1 137:1 138:1 139:1 140:1 142:1 143:1 147:1 148:1 149:1 150:1 151:1 152:1 153:1 154:1 155:1 156:1 157:1 160:1 161:1 163:1 164:1 168:1 169:1 170:1 171:1 172:1 174:1 176:1 177:1 179:1 180:1 181:1 182:1 183:1 184:1 185:1 186:1 187:1 191:1 192:1 193:1 199:1 200:1 206:1 207:1 208:1 209:1 222:1 223:1 224:1 225:1 239:1 240:1 241:1 242:1 243:1 244:1 245:1 246:1 247:1 248:1 249:1 250:1 251:1 252:1 253:1 
1 0:1 3:1 4:1 5:1 6:1 7:1 8:1 9:1 10:1 11:1 28:1 32:1 34:1 35:1 36:1 41:1 42:1 43:1 44:1 50:1 51:1 54:1 57:1 58:1 59:1 60:1 61:1 66:1 67:1 68:1 69:1 70:1 71:1 72:1 73:1 74:1 75:1 76:1 77:1 82:1 83:1 93:1 97:1 98:1 99:1 100:1 101:1 102:1 103:1 106:1 107:1 108:1 109:1 113:1 114:1 115:1 116:1 117:1 118:1 119:1 121:1 124:1 125:1 126:1 129:1 130:1 131:1 132:1 133:1 134:1 135:1 136:1 137:1 138:1 139:1 140:1 141:1 142:1 145:1 146:1 147:1 148:1 149:1 150:1 151:1 152:1 153:1 154:1 155:1 156:1 157:1 158:1 161:1 162:1 163:1 172:1 173:1 174:1 179:1 180:1 181:1 182:1 183:1 184:1 185:1 186:1 187:1 188:1 199:1 200:1 201:1 211:1 221:1 240:1 241:1 242:1 252:1 254:1 255:1 
1 0:1 10:1 11:1 16:1 19:1 20:1 21:1 22:1 23:1 24:1 25:1 26:1 29:1 30:1 31:1 32:1 35:1 36:1 37:1 38:1 39:1 40:1 41:1 42:1 43:1 44:1 45:1 53:1 58:1 61:1 62:1 64:1 67:1 77:1 78:1 80:1 81:1 84:1 87:1 93:1 94:1 95:1 98:1 99:1 100:1 101:1 102:1 103:1 104:1 105:1 106:1 107:1 108:1 109:1 110:1 111:1 145:1 146:1 147:1 148:1 149:1 150:1 151:1 152:1 153:1 154:1 155:1 156:1 157:1 159:1 160:1 161:1 176:1 177:1 203:1 204:1 205:1 208:1 209:1 210:1 211:1 212:1 213:1 214:1 215:1 216:1 217:1 218:1 219:1 220:1 221:1 222:1 223:1 224:1 225:1 226:1 227:1 228:1 229:1 230:1 231:1 232:1 233:1 234:1 235:1 236:1 237:1 238:1 239:1 240:1 241:1 242:1 243:1 244:1 245:1 246:1 247:1 248:1 249:1 250:1 251:1 252:1 253:1 254:1 255:1 
1 1:1 3:1 7:1 8:1 9:1 12:1 17:1 19:1 22:1 23:1 25:1 26:1 31:1 36:1 37:1 38:1 42:1 43:1 44:1 51:1 52:1 54:1 56:1 65:1 77:1 82:1 83:1 84:1 85:1 86:1 87:1 88:1 89:1 90:1 91:1 92:1 97:1 98:1 99:1 100:1 101:1 102:1 103:1 104:1 105:1 106:1 107:1 108:1 109:1 110:1 112:1 113:1 114:1 115:1 116:1 117:1 118:1 119:1 120:1 121:1 122:1 123:1 124:1 125:1 126:1 131:1 140:1 141:1 145:1 157:1 160:1 161:1 162:1 163:1 164:1 165:1 166:1 167:1 168:1 169:1 170:1 171:1 172:1 173:1 174:1 180:1 181:1 186:1 187:1 188:1 189:1 198:1 199:1 206:1 223:1 224:1 239:1 240:1 245:1 248:1 249:1 255:1 
1 1:1 2:1 3:1 4:1 5:1 7:1 10:1 14:1 15:1 16:1 23:1 24:1 25:1 28:1 31:1 36:1 37:1 38:1 39:1 47:1 51:1 52:1 54:1 57:1 58:1 59:1 64:1 67:1 68:1 69:1 73:1 74:1 75:1 76:1 78:1 79:1 80:1 82:1 89:1 90:1 91:1 93:1 94:1 95:1 98:1 101:1 102:1 103:1 104:1 105:1 108:1 109:1 111:1 114:1 115:1 116:1 117:1 118:1 128:1 135:1 136:1 137:1 141:1 145:1 146:1 147:1 148:1 155:1 156:1 157:1 158:1 171:1 172:1 174:1 179:1 180:1 181:1 182:1 183:1 184:1 185:1 186:1 187:1 188:1 189:1 190:1 192:1 195:1 199:1 200:1 201:1 205:1 206:1 208:1 222:1 224:1 238:1 239:1 240:1 244:1 251:1 254:1 255:1 
1 1:1 2:1 5:1 6:1 7:1 8:1 9:1 13:1 17:1 18:1 21:1 24:1 27:1 28:1 33:1 46:1 47:1 52:1 53:1 54:1 55:1 56:1 57:1 58:1 61:1 68:1 69:1 70:1 71:1 74:1 77:1 78:1 80:1 81:1 82:1 83:1 84:1 85:1 86:1 87:1 88:1 89:1 90:1 91:1 96:1 97:1 98:1 99:1 102:1 103:1 104:1 105:1 106:1 107:1 109:1 110:1 111:1 112:1 114:1 125:1 127:1 128:1 130:1 136:1 141:1 143:1 144:1 148:1 150:1 155:1 159:1 160:1 161:1 164:1 165:1 166:1 168:1 169:1 171:1 172:1 173:1 176:1 177:1 178:1 183:1 184:1 185:1 186:1 187:1 188:1 189:1 190:1 192:1 198:1 199:1 200:1 206:1 207:1 208:1 209:1 223:1 224:1 226:1 240:1 244:1 246:1 247:1 248:1 249:1 250:1 253:1 254:1 255:1 
1 0:1 1:1 3:1 4:1 14:1 17:1 18:1 21:1 22:1 23:1 24:1 25:1 26:1 27:1 28:1 29:1 30:1 31:1 36:1 38:1 39:1 41:1 43:1 44:1 46:1 48:1 50:1 52:1 53:1 54:1 55:1 56:1 57:1 62:1 63:1 66:1 67:1 74:1 80:1 81:1 82:1 83:1 86:1 90:1 91:1 97:1 98:1 99:1 100:1 101:1 102:1 103:1 104:1 105:1 106:1 107:1 108:1 109:1 110:1 111:1 113:1 114:1 115:1 116:1 125:1 126:1 127:1 130:1 142:1 143:1 151:1 152:1 153:1 159:1 161:1 163:1 175:1 179:1 180:1 187:1 191:1 192:1 208:1 209:1 210:1 211:1 212:1 213:1 214:1 215:1 216:1 217:1 218:1 219:1 220:1 221:1 222:1 223:1 224:1 225:1 226:1 227:1 228:1 229:1 230:1 231:1 232:1 233:1 234:1 235:1 236:1 237:1 238:1 239:1 242:1 243:1 244:1 245:1 246:1 247:1 248:1 249:1 250:1 251:1 252:1 255:1 
0.3626909440940223 0:1 1:1 4:1 5:1 7:1 8:1 9:1 12:1 15:1 17:1 20:1 23:1 29:1 30:1 31:1 33:1 36:1 37:1 46:1 49:1 51:1 58:1 59:1 60:1 62:1 67:1 69:1 70:1 71:1 72:1 73:1 74:1 75:1 76:1 85:1 87:1 89:1 90:1 91:1 92:1 94:1 95:1 96:1 101:1 111:1 112:1 115:1 116:1 117:1 118:1 119:1 120:1 121:1 122:1 123:1 124:1 125:1 126:1 127:1 128:1 129:1 130:1 131:1 132:1 133:1 134:1 135:1 136:1 137:1 138:1 139:1 140:1 141:1 143:1 144:1 146:1 160:1 161:1 162:1 163:1 164:1 165:1 166:1 168:1 169:1 171:1 172:1 173:1 175:1 176:1 177:1 178:1 180:1 181:1 185:1 186:1 187:1 189:1 191:1 192:1 193:1 196:1 197:1 202:1 204:1 207:1 208:1 223:1 238:1 239:1 241:1 242:1 243:1 244:1 245:1 246:1 247:1 248:1 249:1 250:1 251:1 252:1 253:1 254:1 255:1 
1 0:1 1:1 2:1 6:1 7:1 8:1 9:1 10:1 11:1 20:1 21:1 22:1 23:1 24:1 25:1 26:1 27:1 37:1 38:1 39:1 40:1 41:1 42:1 48:1 49:1 50:1 60:1 61:1 62:1 63:1 64:1 65:1 66:1 68:1 69:1 70:1 71:1 75:1 77:1 78:1 79:1 81:1 83:1 84:1 85:1 86:1 87:1 88:1 89:1 93:1 94:1 95:1 99:1 100:1 101:1 102:1 103:1 104:1 105:1 112:1 113:1 126:1 127:1 128:1 130:1 131:1 132:1 133:1 134:1 135:1 143:1 146:1 148:1 149:1 150:1 151:1 152:1 153:1 154:1 155:1 159:1 167:1 171:1 172:1 173:1 175:1 179:1 181:1 186:1 187:1 188:1 192:1 198:1 199:1 200:1 207:1 208:1 224:1 239:1 240:1 255:1 
1 1:1 4:1 5:1 10:1 14:1 15:1 17:1 19:1 20:1 21:1 26:1 30:1 31:1 32:1 33:1 35:1 36:1 37:1 45:1 46:1 48:1 49:1 50:1 55:1 56:1 57:1 61:1 63:1 65:1 66:1 69:1 70:1 71:1 72:1 73:1 75:1 76:1 77:1 78:1 79:1 96:1 102:1 108:1 114:1 115:1 116:1 117:1 118:1 119:1 120:1 121:1 122:1 123:1 124:1 125:1 126:1 127:1 129:1 130:1 131:1 132:1 133:1 136:1 137:1 140:1 141:1 142:1 147:1 148:1 159:1 160:1 168:1 169:1 176:1 192:1 196:1 197:1 198:1 199:1 200:1 201:1 202:1 203:1 204:1 215:1 216:1 221:1 222:1 223:1 225:1 226:1 227:1 228:1 229:1 230:1 231:1 232:1 233:1 234:1 235:1 236:1 237:1 238:1 239:1 241:1 242:1 243:1 244:1 245:1 246:1 252:1 253:1 254:1 
0.3465371342989571 3:1 6:1 9:1 11:1 15:1 16:1 19:1 20:1 22:1 25:1 28:1 32:1 34:1 35:1 36:1 37:1 38:1 39:1 40:1 41:1 42:1 44:1 46:1 47:1 48:1 51:1 56:1 60:1 61:1 62:1 63:1 64:1 67:1 71:1 72:1 73:1 76:1 78:1 79:1 80:1 94:1 95:1 96:1 101:1 102:1 103:1 104:1 105:1 106:1 107:1 108:1 109:1 111:1 115:1 116:1 123:1 124:1 131:1 132:1 133:1 134:1 135:1 136:1 137:1 138:1 139:1 140:1 141:1 143:1 147:1 149:1 151:1 152:1 153:1 155:1 156:1 163:1 164:1 175:1 191:1 196:1 197:1 198:1 199:1 200:1 201:1 202:1 207:1 208:1 218:1 219:1 220:1 221:1 222:1 223:1 224:1 225:1 226:1 227:1 228:1 229:1 230:1 231:1 232:1 233:1 234:1 235:1 236:1 237:1 238:1 240:1 242:1 243:1 244:1 245:1 246:1 247:1 248:1 249:1 250:1 251:1 252:1 253:1 254:1 255:1 
1 5:1 6:1 9:1 10:1 11:1 12:1 16:1 17:1 18:1 20:1 21:1 22:1 23:1 24:1 25:1 26:1 27:1 28:1 44:1 45:1 50:1 53:1 54:1 55:1 59:1 60:1 65:1 66:1 70:1 71:1 76:1 77:1 79:1 98:1 99:1 100:1 101:1 102:1 103:1 104:1 105:1 106:1 107:1 108:1 109:1 110:1 113:1 114:1 115:1 116:1 117:1 118:1 119:1 120:1 121:1 122:1 123:1 124:1 125:1 129:1 132:1 133:1 134:1 135:1 136:1 137:1 138:1 139:1 142:1 146:1 157:1 162:1 163:1 171:1 172:1 173:1 179:1 180:1 181:1 182:1 185:1 186:1 187:1 188:1 190:1 194:1 195:1 196:1 197:1 198:1 199:1 200:1 201:1 202:1 203:1 204:1 205:1 206:1 223:1 224:1 239:1 240:1 241:1 255:1 
0.5931489116201512 3:1 5:1 11:1 12:1 14:1 15:1 16:1 17:1 32:1 33:1 35:1 36:1 37:1 38:1 39:1 40:1 41:1 42:1 43:1 44:1 45:1 49:1 50:1 60:1 62:1 67:1 81:1 95:1 96:1 97:1 98:1 99:1 100:1 101:1 102:1 103:1 104:1 105:1 106:1 107:1 108:1 109:1 112:1 113:1 114:1 115:1 116:1 117:1 118:1 119:1 120:1 121:1 122:1 123:1 124:1 125:1 126:1 129:1 133:1 134:1 135:1 136:1 137:1 138:1 139:1 141:1 142:1 145:1 146:1 147:1 148:1 149:1 150:1 152:1 154:1 155:1 156:1 157:1 158:1 161:1 162:1 163:1 173:1 174:1 175:1 207:1 208:1 209:1 210:1 211:1 212:1 213:1 214:1 215:1 216:1 217:1 218:1 219:1 220:1 221:1 222:1 223:1 224:1 225:1 226:1 227:1 228:1 229:1 230:1 231:1 232:1 233:1 234:1 235:1 236:1 237:1 238:1 239:1 240:1 241:1 242:1 243:1 244:1 245:1 246:1 247:1 248:1 249:1 
1 8:1 9:1 10:1 11:1 12:1 15:1 16:1 19:1 20:1 21:1 22:1 23:1 31:1 32:1 36:1 37:1 38:1 39:1 40:1 41:1 44:1 46:1 47:1 48:1 52:1 53:1 54:1 55:1 56:1 57:1 63:1 65:1 67:1 73:1 77:1 78:1 79:1 82:1 83:1 84:1 85:1 86:1 87:1 88:1 89:1 90:1 91:1 98:1 99:1 100:1 101:1 102:1 103:1 104:1 105:1 106:1 107:1 108:1 109:1 113:1 114:1 116:1 117:1 118:1 119:1 121:1 122:1 123:1 124:1 129:1 139:1 145:1 146:1 147:1 148:1 149:1 150:1 151:1 152:1 153:1 154:1 155:1 156:1 157:1 158:1 161:1 162:1 163:1 172:1 173:1 174:1 177:1 178:1 183:1 184:1 189:1 190:1 193:1 194:1 198:1 205:1 208:1 224:1 240:1 241:1 242:1 243:1 244:1 245:1 246:1 247:1 248:1 249:1 250:1 251:1 252:1 253:1 254:1 255:1 
1 0:1 3:1 10:1 14:1 15:1 16:1 19:1 22:1 26:1 27:1 53:1 54:1 58:1 62:1 63:1 64:1 65:1 66:1 67:1 68:1 69:1 70:1 71:1 72:1 73:1 74:1 75:1 78:1 80:1 81:1 86:1 87:1 88:1 94:1 95:1 96:1 110:1 111:1 115:1 116:1 117:1 118:1 119:1 120:1 121:1 122:1 123:1 124:1 125:1 127:1 131:1 132:1 133:1 134:1 135:1 136:1 137:1 138:1 139:1 140:1 141:1 147:1 148:1 149:1 156:1 157:1 159:1 160:1 161:1 182:1 183:1 187:1 189:1 195:1 196:1 197:1 198:1 199:1 200:1 201:1 202:1 206:1 207:1 208:1 209:1 210:1 211:1 212:1 213:1 214:1 215:1 216:1 217:1 218:1 219:1 220:1 221:1 222:1 223:1 224:1 225:1 226:1 227:1 228:1 229:1 230:1 234:1 235:1 236:1 237:1 238:1 248:1 249:1 
0.9520482726715601 3:1 6:1 8:1 12:1 22:1 24:1 30:1 31:1 32:1 38:1 39:1 40:1 41:1 43:1 44:1 45:1 46:1 47:1 48:1 49:1 50:1 51:1 52:1 53:1 54:1 55:1 56:1 57:1 60:1 61:1 62:1 64:1 65:1 66:1 68:1 69:1 70:1 71:1 75:1 78:1 84:1 85:1 88:1 92:1 93:1 94:1 95:1 96:1 108:1 109:1 115:1 116:1 117:1 118:1 119:1 120:1 121:1 122:1 123:1 127:1 132:1 133:1 134:1 135:1 136:1 137:1 138:1 139:1 140:1 141:1 143:1 144:1 145:1 146:1 147:1 148:1 149:1 156:1 157:1 160:1 163:1 166:1 167:1 168:1 169:1 170:1 171:1 176:1 179:1 180:1 181:1 182:1 188:1 189:1 209:1 210:1 224:1 225:1 226:1 227:1 228:1 229:1 230:1 231:1 232:1 233:1 234:1 235:1 236:1 237:1 238:1 239:1 240:1 241:1 242:1 243:1 244:1 245:1 246:1 247:1 248:1 249:1 250:1 251:1 252:1 253:1 254:1 255:1 
1 0:1 4:1 5:1 6:1 7:1 9:1 11:1 13:1 18:1 19:1 20:1 23:1 29:1 30:1 33:1 34:1 35:1 36:1 45:1 46:1 51:1 55:1 56:1 57:1 58:1 59:1 60:1 61:1 62:1 64:1 66:1 67:1 68:1 69:1 70:1 71:1 72:1 73:1 74:1 75:1 76:1 80:1 81:1 82:1 84:1 85:1 86:1 87:1 88:1 89:1 90:1 91:1 92:1 93:1 96:1 100:1 101:1 102:1 103:1 104:1 105:1 106:1 107:1 108:1 109:1 115:1 116:1 117:1 118:1 119:1 120:1 121:1 122:1 124:1 125:1 129:1 130:1 131:1 140:1 141:1 144:1 145:1 147:1 148:1 149:1 150:1 155:1 156:1 158:1 160:1 161:1 167:1 168:1 175:1 176:1 177:1 191:1 193:1 208:1 224:1 225:1 226:1 227:1 228:1 229:1 230:1 231:1 232:1 233:1 234:1 235:1 236:1 237:1 238:1 239:1 244:1 245:1 246:1 248:1 249:1 
1 0:1 1:1 3:1 9:1 11:1 12:1 13:1 14:1 17:1 20:1 21:1 25:1 32:1 33:1 41:1 50:1 53:1 54:1 55:1 56:1 57:1 58:1 64:1 65:1 68:1 69:1 70:1 71:1 72:1 73:1 74:1 75:1 79:1 80:1 81:1 84:1 85:1 86:1 87:1 88:1 89:1 90:1 91:1 99:1 100:1 101:1 102:1 103:1 104:1 105:1 106:1 107:1 108:1 109:1 110:1 111:1 112:1 116:1 121:1 122:1 123:1 125:1 126:1 127:1 128:1 141:1 142:1 144:1 157:1 158:1 159:1 160:1 161:1 162:1 163:1 164:1 167:1 168:1 173:1 174:1 176:1 182:1 183:1 184:1 185:1 189:1 190:1 191:1 202:1 205:1 206:1 207:1 208:1 221:1 222:1 224:1 225:1 226:1 227:1 228:1 229:1 230:1 231:1 232:1 233:1 234:1 235:1 236:1 237:1 240:1 241:1 242:1 243:1 244:1 245:1 246:1 247:1 248:1 249:1 250:1 251:1 252:1 253:1 254:1 
1 2:1 6:1 7:1 8:1 9:1 10:1 11:1 12:1 13:1 15:1 16:1 17:1 18:1 23:1 24:1 25:1 26:1 27:1 28:1 29:1 38:1 46:1 47:1 49:1 50:1 52:1 53:1 54:1 55:1 56:1 57:1 58:1 59:1 60:1 62:1 63:1 65:1 66:1 68:1 69:1 70:1 71:1 72:1 73:1 74:1 75:1 76:1 91:1 92:1 95:1 97:1 99:1 100:1 101:1 102:1 103:1 104:1 105:1 106:1 112:1 114:1 116:1 117:1 118:1 120:1 122:1 123:1 124:1 125:1 128:1 129:1 130:1 131:1 141:1 142:1 143:1 144:1 145:1 153:1 159:1 160:1 161:1 163:1 164:1 165:1 167:1 168:1 169:1 170:1 171:1 172:1 173:1 174:1 175:1 176:1 177:1 180:1 181:1 182:1 183:1 184:1 185:1 186:1 187:1 188:1 189:1 190:1 191:1 192:1 193:1 200:1 201:1 207:1 208:1 219:1 220:1 223:1 224:1 225:1 239:1 241:1 242:1 245:1 246:1 247:1 249:1 252:1 253:1 254:1 255:1 
1 2:1 3:1 11:1 14:1 15:1 18:1 21:1 22:1 23:1 24:1 25:1 26:1 27:1 32:1 36:1 37:1 38:1 39:1 40:1 41:1 42:1 43:1 44:1 48:1 49:1 51:1 59:1 60:1 65:1 66:1 78:1 82:1 83:1 84:1 90:1 91:1 92:1 93:1 98:1 99:1 100:1 101:1 102:1 103:1 104:1 105:1 106:1 107:1 108:1 109:1 113:1 114:1 115:1 116:1 117:1 118:1 119:1 120:1 121:1 122:1 123:1 124:1 125:1 131:1 135:1 136:1 140:1 142:1 145:1 147:1 155:1 156:1 158:1 161:1 162:1 163:1 164:1 170:1 171:1 172:1 173:1 174:1 179:1 180:1 181:1 182:1 183:1 184:1 185:1 186:1 187:1 199:1 200:1 206:1 208:1 212:1 213:1 217:1 218:1 219:1 223:1 239:1 240:1 242:1 249:1 254:1 255:1 
0.01986592374568467 0:1 3:1 7:1 12:1 16:1 18:1 19:1 23:1 28:1 32:1 39:1 40:1 41:1 42:1 43:1 44:1 51:1 52:1 53:1 54:1 55:1 56:1 57:1 58:1 59:1 61:1 67:1 68:1 70:1 73:1 74:1 75:1 76:1 77:1 79:1 80:1 82:1 83:1 87:1 88:1 89:1 90:1 91:1 92:1 93:1 96:1 97:1 98:1 99:1 100:1 101:1 114:1 115:1 116:1 117:1 118:1 119:1 120:1 121:1 122:1 123:1 124:1 125:1 126:1 127:1 128:1 132:1 133:1 139:1 140:1 143:1 144:1 151:1 152:1 153:1 159:1 160:1 167:1 168:1 169:1 175:1 176:1 191:1 192:1 195:1 196:1 197:1 198:1 199:1 200:1 201:1 202:1 203:1 204:1 207:1 208:1 209:1 210:1 211:1 212:1 213:1 214:1 215:1 216:1 217:1 218:1 219:1 220:1 221:1 222:1 223:1 227:1 228:1 229:1 232:1 233:1 234:1 235:1 236:1 237:1 238:1 240:1 241:1 242:1 243:1 245:1 246:1 252:1 253:1 254:1 255:1 
0.5899898430516252 3:1 4:1 5:1 8:1 9:1 15:1 19:1 24:1 31:1 32:1 35:1 37:1 38:1 39:1 40:1 41:1 42:1 43:1 47:1 49:1 51:1 53:1 54:1 55:1 56:1 57:1 58:1 59:1 60:1 62:1 67:1 68:1 69:1 70:1 71:1 72:1 73:1 75:1 76:1 78:1 82:1 83:1 84:1 85:1 86:1 87:1 88:1 89:1 90:1 91:1 92:1 93:1 94:1 95:1 96:1 97:1 98:1 109:1 110:1 113:1 114:1 119:1 120:1 125:1 126:1 127:1 128:1 130:1 131:1 141:1 143:1 144:1 156:1 159:1 160:1 162:1 171:1 172:1 176:1 179:1 180:1 183:1 184:1 185:1 187:1 188:1 192:1 195:1 197:1 198:1 199:1 200:1 201:1 202:1 207:1 223:1 224:1 238:1 239:1 240:1 241:1 243:1 244:1 245:1 246:1 247:1 248:1 249:1 250:1 251:1 253:1 254:1 255:1 
0.8516876919989105 0:1 3:1 8:1 9:1 10:1 13:1 14:1 16:1 19:1 24:1 25:1 26:1 27:1 28:1 29:1 30:1 40:1 41:1 44:1 45:1 48:1 49:1 50:1 51:1 52:1 53:1 54:1 55:1 58:1 59:1 60:1 61:1 64:1 65:1 67:1 68:1 69:1 70:1 76:1 78:1 79:1 80:1 90:1 91:1 93:1 94:1 95:1 111:1 112:1 113:1 114:1 115:1 116:1 117:1 118:1 119:1 120:1 121:1 122:1 123:1 124:1 125:1 126:1 127:1 128:1 129:1 130:1 143:1 144:1 146:1 147:1 148:1 149:1 150:1 156:1 157:1 158:1 159:1 161:1 168:1 169:1 170:1 177:1 184:1 185:1 186:1 204:1 223:1 224:1 225:1 226:1 227:1 228:1 229:1 230:1 231:1 232:1 233:1 234:1 235:1 236:1 237:1 238:1 239:1 240:1 241:1 242:1 243:1 244:1 245:1 246:1 247:1 248:1 249:1 250:1 251:1 252:1 253:1 254:1 255:1 
1 1:1 2:1 3:1 5:1 8:1 12:1 13:1 14:1 15:1 17:1 18:1 22:1 25:1 30:1 34:1 36:1 37:1 38:1 39:1 40:1 43:1 46:1 49:1 50:1 52:1 53:1 54:1 55:1 56:1 57:1 58:1 59:1 62:1 64:1 65:1 66:1 68:1 69:1 73:1 74:1 75:1 78:1 80:1 91:1 92:1 94:1 95:1 96:1 99:1 100:1 101:1 102:1 103:1 104:1 105:1 106:1 107:1 108:1 109:1 111:1 112:1 113:1 114:1 115:1 124:1 125:1 127:1 128:1 129:1 130:1 131:1 133:1 140:1 143:1 148:1 152:1 154:1 155:1 160:1 167:1 168:1 169:1 175:1 176:1 177:1 179:1 183:1 184:1 193:1 196:1 197:1 198:1 200:1 201:1 202:1 203:1 204:1 208:1 209:1 223:1 224:1 225:1 239:1 241:1 244:1 245:1 246:1 247:1 250:1 251:1 252:1 255:1 
1 0:1 1:1 2:1 6:1 7:1 14:1 15:1 18:1 19:1 20:1 21:1 22:1 23:1 24:1 25:1 26:1 27:1 28:1 31:1 33:1 44:1 45:1 46:1 61:1 62:1 63:1 64:1 66:1 67:1 68:1 69:1 70:1 71:1 72:1 73:1 74:1 75:1 79:1 80:1 84:1 85:1 91:1 95:1 96:1 107:1 109:1 123:1 125:1 127:1 143:1 144:1 145:1 146:1 147:1 148:1 149:1 150:1 151:1 152:1 153:1 155:1 156:1 159:1 160:1 161:1 162:1 163:1 164:1 165:1 166:1 167:1 168:1 169:1 170:1 171:1 172:1 175:1 176:1 177:1 178:1 180:1 181:1 182:1 183:1 184:1 186:1 187:1 188:1 190:1 191:1 192:1 207:1 208:1 209:1 224:1 239:1 240:1 241:1 242:1 243:1 244:1 245:1 246:1 247:1 248:1 249:1 250:1 251:1 252:1 253:1 254:1 255:1 
0.4365281540273157 0:1 1:1 4:1 5:1 6:1 7:1 8:1 9:1 10:1 11:1 13:1 14:1 16:1 19:1 20:1 21:1 23:1 24:1 25:1 26:1 27:1 29:1 30:1 32:1 35:1 44:1 51:1 60:1 62:1 78:1 82:1 83:1 98:1 99:1 100:1 101:1 102:1 103:1 104:1 105:1 106:1 107:1 108:1 114:1 115:1 116:1 117:1 118:1 119:1 120:1 121:1 122:1 123:1 124:1 125:1 126:1 127:1 130:1 131:1 132:1 133:1 134:1 135:1 136:1 137:1 138:1 139:1 140:1 141:1 142:1 143:1 150:1 153:1 154:1 158:1 159:1 160:1 161:1 174:1 175:1 176:1 190:1 191:1 192:1 198:1 199:1 200:1 201:1 206:1 222:1 223:1 225:1 237:1 238:1 239:1 240:1 241:1 254:1 255:1 
1 2:1 6:1 7:1 12:1 15:1 16:1 18:1 19:1 23:1 25:1 34:1 35:1 36:1 41:1 42:1 46:1 48:1 50:1 53:1 57:1 58:1 59:1 60:1 62:1 66:1 67:1 69:1 70:1 71:1 72:1 73:1 74:1 75:1 76:1 78:1 84:1 86:1 94:1 95:1 96:1 100:1 101:1 110:1 113:1 116:1 117:1 122:1 123:1 124:1 125:1 127:1 131:1 132:1 133:1 134:1 135:1 136:1 137:1 138:1 139:1 140:1 141:1 146:1 147:1 148:1 149:1 150:1 151:1 152:1 153:1 154:1 155:1 156:1 157:1 159:1 162:1 167:1 172:1 173:1 175:1 178:1 179:1 180:1 181:1 183:1 184:1 185:1 188:1 191:1 193:1 199:1 200:1 207:1 208:1 209:1 215:1 223:1 225:1 238:1 239:1 240:1 241:1 246:1 247:1 254:1 255:1 
0.851197377192872 0:1 3:1 4:1 5:1 7:1 15:1 16:1 27:1 28:1 31:1 32:1 33:1 35:1 36:1 38:1 39:1 40:1 41:1 42:1 43:1 44:1 47:1 48:1 54:1 55:1 56:1 57:1 58:1 59:1 60:1 62:1 63:1 64:1 65:1 66:1 70:1 76:1 78:1 80:1 85:1 86:1 87:1 88:1 89:1 90:1 91:1 92:1 93:1 98:1 99:1 100:1 101:1 102:1 103:1 104:1 105:1 106:1 107:1 108:1 109:1 110:1 115:1 116:1 117:1 118:1 119:1 120:1 121:1 122:1 123:1 124:1 125:1 126:1 129:1 132:1 139:1 145:1 148:1 149:1 150:1 151:1 152:1 153:1 154:1 155:1 156:1 157:1 158:1 159:1 161:1 162:1 163:1 172:1 173:1 174:1 177:1 178:1 183:1 184:1 189:1 190:1 193:1 194:1 200:1 205:1 206:1 239:1 240:1 241:1 242:1 243:1 244:1 245:1 246:1 247:1 248:1 249:1 250:1 251:1 252:1 253:1 254:1 255:1 
1 16:1 18:1 19:1 20:1 21:1 22:1 23:1 24:1 25:1 26:1 27:1 28:1 29:1 30:1 31:1 32:1 35:1 36:1 37:1 38:1 39:1 40:1 41:1 42:1 47:1 48:1 50:1 51:1 57:1 58:1 59:1 61:1 63:1 64:1 66:1 67:1 69:1 70:1 71:1 72:1 73:1 74:1 75:1 78:1 79:1 82:1 96:1 97:1 98:1 99:1 100:1 101:1 102:1 103:1 104:1 105:1 106:1 107:1 108:1 109:1 110:1 113:1 114:1 115:1 116:1 117:1 118:1 119:1 120:1 121:1 122:1 123:1 124:1 125:1 126:1 128:1 143:1 144:1 150:1 151:1 152:1 153:1 159:1 160:1 168:1 169:1 175:1 192:1 195:1 196:1 197:1 198:1 201:1 202:1 203:1 208:1 209:1 210:1 211:1 212:1 213:1 214:1 215:1 216:1 217:1 218:1 219:1 220:1 221:1 222:1 223:1 224:1 225:1 226:1 227:1 228:1 229:1 230:1 231:1 232:1 233:1 234:1 235:1 236:1 237:1 238:1 239:1 240:1 241:1 242:1 243:1 244:1 245:1 247:1 248:1 249:1 250:1 255:1 
0.5093113199366253 1:1 11:1 27:1 29:1 30:1 31:1 36:1 37:1 38:1 39:1 40:1 41:1 42:1 43:1 47:1 51:1 52:1 53:1 54:1 55:1 56:1 57:1 58:1 59:1 61:1 65:1 67:1 68:1 69:1 72:1 73:1 75:1 83:1 84:1 85:1 86:1 87:1 88:1 89:1 90:1 91:1 92:1 93:1 94:1 95:1 97:1 98:1 99:1 100:1 108:1 109:1 110:1 111:1 114:1 115:1 118:1 119:1 120:1 121:1 122:1 123:1 124:1 125:1 127:1 130:1 131:1 132:1 145:1 146:1 155:1 156:1 157:1 158:1 159:1 160:1 161:1 162:1 163:1 164:1 165:1 166:1 167:1 168:1 169:1 170:1 171:1 173:1 175:1 176:1 177:1 179:1 191:1 192:1 193:1 196:1 206:1 207:1 208:1 211:1 223:1 226:1 239:1 240:1 242:1 246:1 247:1 248:1 249:1 250:1 251:1 255:1 
1 0:1 1:1 2:1 3:1 4:1 5:1 6:1 7:1 8:1 9:1 10:1 11:1 12:1 13:1 14:1 15:1 16:1 17:1 18:1 19:1 20:1 21:1 22:1 23:1 24:1 25:1 26:1 27:1 28:1 29:1 30:1 31:1 32:1 33:1 35:1 43:1 44:1 45:1 46:1 49:1 60:1 61:1 67:1 75:1 76:1 77:1 81:1 83:1 85:1 88:1 89:1 90:1 91:1 94:1 95:1 97:1 98:1 101:1 110:1 111:1 113:1 129:1 130:1 131:1 145:1 146:1 147:1 148:1 149:1 150:1 151:1 152:1 153:1 154:1 156:1 157:1 158:1 161:1 162:1 163:1 164:1 167:1 170:1 172:1 173:1 177:1 178:1 179:1 180:1 181:1 182:1 183:1 184:1 185:1 186:1 187:1 192:1 193:1 194:1 196:1 200:1 201:1 204:1 208:1 212:1 214:1 215:1 216:1 217:1 241:1 242:1 243:1 244:1 245:1 246:1 247:1 248:1 249:1 250:1 251:1 252:1 253:1 254:1 255:1 
1 0:1 16:1 17:1 22:1 23:1 24:1 25:1 26:1 27:1 28:1 29:1 30:1 31:1 33:1 34:1 36:1 42:1 43:1 44:1 45:1 46:1 47:1 49:1 53:1 54:1 65:1 82:1 83:1 84:1 85:1 86:1 87:1 88:1 94:1 96:1 98:1 99:1 100:1 101:1 102:1 103:1 104:1 105:1 106:1 107:1 110:1 113:1 114:1 115:1 116:1 117:1 118:1 119:1 120:1 121:1 122:1 123:1 125:1 129:1 130:1 131:1 132:1 133:1 140:1 141:1 142:1 146:1 147:1 148:1 149:1 156:1 158:1 163:1 164:1 165:1 166:1 167:1 168:1 169:1 170:1 171:1 172:1 173:1 174:1 176:1 178:1 180:1 181:1 182:1 183:1 184:1 185:1 186:1 189:1 190:1 192:1 194:1 196:1 204:1 205:1 206:1 208:1 211:1 212:1 213:1 215:1 224:1 225:1 240:1 241:1 242:1 246:1 248:1 249:1 250:1 251:1 252:1 253:1 254:1 255:1 
1 11:1 18:1 19:1 20:1 22:1 24:1 26:1 27:1 28:1 29:1 30:1 31:1 39:1 40:1 41:1 45:1 47:1 48:1 49:1 50:1 51:1 52:1 53:1 54:1 55:1 56:1 61:1 63:1 64:1 65:1 66:1 67:1 68:1 69:1 73:1 74:1 75:1 76:1 85:1 94:1 99:1 100:1 101:1 102:1 103:1 104:1 105:1 111:1 114:1 115:1 116:1 117:1 118:1 119:1 120:1 122:1 123:1 124:1 128:1 137:1 138:1 139:1 140:1 143:1 144:1 145:1 154:1 155:1 160:1 165:1 166:1 167:1 168:1 169:1 175:1 176:1 180:1 181:1 182:1 183:1 192:1 193:1 206:1 208:1 209:1 222:1 225:1 226:1 231:1 233:1 237:1 238:1 240:1 241:1 242:1 243:1 244:1 245:1 246:1 247:1 248:1 249:1 250:1 253:1 254:1 255:1 
1 0:1 1:1 2:1 3:1 4:1 5:1 6:1 7:1 8:1 9:1 10:1 11:1 12:1 13:1 14:1 15:1 16:1 17:1 18:1 19:1 20:1 21:1 22:1 23:1 24:1 25:1 26:1 27:1 28:1 30:1 31:1 33:1 34:1 35:1 44:1 46:1 49:1 50:1 51:1 52:1 68:1 69:1 70:1 76:1 80:1 81:1 87:1 88:1 89:1 90:1 91:1 92:1 94:1 125:1 126:1 129:1 130:1 131:1 133:1 134:1 135:1 136:1 137:1 140:1 141:1 142:1 143:1 145:1 146:1 147:1 151:1 154:1 155:1 156:1 157:1 158:1 163:1 164:1 165:1 166:1 168:1 169:1 170:1 171:1 172:1 173:1 174:1 180:1 181:1 182:1 183:1 184:1 185:1 186:1 187:1 188:1 189:1 190:1 191:1 196:1 203:1 204:1 206:1 207:1 223:1 236:1 237:1 238:1 240:1 241:1 242:1 243:1 244:1 245:1 246:1 247:1 248:1 249:1 250:1 251:1 252:1 253:1 254:1 
1 0:1 9:1 14:1 19:1 20:1 23:1 24:1 25:1 30:1 35:1 36:1 37:1 39:1 41:1 44:1 45:1 46:1 51:1 52:1 53:1 55:1 56:1 57:1 60:1 61:1 62:1 67:1 68:1 69:1 77:1 78:1 83:1 84:1 87:1 88:1 92:1 94:1 98:1 99:1 114:1 115:1 116:1 117:1 118:1 119:1 120:1 121:1 128:1 132:1 133:1 134:1 137:1 139:1 140:1 141:1 142:1 143:1 148:1 149:1 150:1 151:1 152:1 153:1 154:1 158:1 159:1 160:1 161:1 176:1 192:1 196:1 197:1 198:1 199:1 200:1 201:1 202:1 203:1 204:1 208:1 209:1 211:1 212:1 220:1 221:1 222:1 223:1 224:1 225:1 226:1 227:1 228:1 229:1 230:1 231:1 232:1 233:1 234:1 235:1 236:1 237:1 238:1 239:1 245:1 246:1 248:1 249:1 250:1 251:1 252:1 253:1 254:1 255:1 
1 0:1 1:1 2:1 3:1 4:1 8:1 9:1 10:1 16:1 23:1 28:1 29:1 30:1 31:1 39:1 40:1 41:1 42:1 45:1 46:1 47:1 49:1 50:1 51:1 52:1 53:1 54:1 55:1 56:1 57:1 58:1 61:1 62:1 63:1 64:1 65:1 66:1 67:1 68:1 69:1 70:1 71:1 72:1 73:1 74:1 78:1 79:1 80:1 81:1 84:1 85:1 86:1 87:1 89:1 90:1 95:1 96:1 97:1 98:1 100:1 101:1 102:1 103:1 104:1 105:1 106:1 107:1 108:1 110:1 111:1 112:1 113:1 115:1 116:1 117:1 118:1 119:1 120:1 121:1 122:1 123:1 126:1 127:1 128:1 129:1 130:1 131:1 132:1 135:1 138:1 139:1 140:1 142:1 143:1 144:1 145:1 150:1 151:1 152:1 153:1 154:1 158:1 159:1 160:1 161:1 166:1 167:1 168:1 174:1 175:1 176:1 177:1 190:1 191:1 192:1 193:1 208:1 209:1 210:1 211:1 212:1 213:1 214:1 215:1 216:1 217:1 218:1 219:1 220:1 221:1 222:1 223:1 227:1 228:1 229:1 230:1 231:1 232:1 233:1 234:1 235:1 236:1 237:1 240:1 241:1 242:1 243:1 244:1 245:1 246:1 247:1 248:1 249:1 250:1 251:1 252:1 254:1 255:1 
1 1:1 5:1 7:1 8:1 9:1 10:1 13:1 14:1 15:1 16:1 20:1 21:1 22:1 23:1 24:1 25:1 26:1 27:1 28:1 29:1 33:1 34:1 35:1 36:1 46:1 49:1 50:1 51:1 52:1 62:1 64:1 68:1 69:1 70:1 71:1 72:1 73:1 74:1 75:1 76:1 77:1 80:1 84:1 85:1 86:1 87:1 88:1 89:1 90:1 91:1 92:1 95:1 96:1 100:1 111:1 116:1 128:1 129:1 142:1 144:1 146:1 147:1 148:1 149:1 151:1 152:1 153:1 154:1 155:1 156:1 157:1 158:1 159:1 160:1 163:1 164:1 165:1 166:1 167:1 168:1 169:1 170:1 171:1 172:1 174:1 175:1 176:1 179:1 180:1 181:1 182:1 183:1 184:1 185:1 186:1 187:1 189:1 190:1 191:1 192:1 194:1 196:1 207:1 208:1 223:1 224:1 238:1 239:1 240:1 241:1 242:1 243:1 244:1 245:1 246:1 247:1 248:1 249:1 250:1 251:1 252:1 253:1 254:1 255:1 
1 1:1 3:1 4:1 5:1 11:1 12:1 15:1 17:1 18:1 19:1 20:1 21:1 27:1 28:1 30:1 31:1 33:1 34:1 45:1 49:1 53:1 56:1 57:1 58:1 59:1 62:1 63:1 65:1 68:1 79:1 80:1 81:1 84:1 85:1 86:1 87:1 88:1 89:1 90:1 91:1 92:1 95:1 96:1 99:1 100:1 101:1 102:1 103:1 104:1 107:1 108:1 109:1 110:1 111:1 114:1 115:1 116:1 123:1 127:1 128:1 129:1 143:1 144:1 148:1 149:1 150:1 151:1 152:1 153:1 154:1 159:1 160:1 175:1 176:1 191:1 192:1 199:1 200:1 201:1 202:1 203:1 204:1 208:1 213:1 214:1 215:1 216:1 217:1 218:1 219:1 220:1 223:1 224:1 239:1 240:1 241:1 244:1 245:1 246:1 252:1 253:1 254:1 255:1 
0.2895333073891208 1:1 2:1 3:1 4:1 13:1 15:1 17:1 18:1 19:1 20:1 22:1 23:1 24:1 25:1 26:1 27:1 28:1 31:1 32:1 33:1 34:1 36:1 38:1 40:1 41:1 42:1 43:1 44:1 47:1 48:1 49:1 50:1 54:1 56:1 57:1 58:1 59:1 60:1 63:1 64:1 68:1 69:1 70:1 71:1 72:1 73:1 74:1 75:1 76:1 78:1 79:1 80:1 82:1 83:1 86:1 87:1 88:1 89:1 90:1 91:1 92:1 96:1 97:1 98:1 99:1 100:1 107:1 108:1 112:1 113:1 118:1 119:1 121:1 122:1 123:1 124:1 125:1 128:1 131:1 132:1 133:1 134:1 135:1 136:1 137:1 138:1 139:1 140:1 142:1 145:1 146:1 149:1 150:1 155:1 156:1 159:1 160:1 162:1 163:1 164:1 165:1 171:1 175:1 176:1 177:1 182:1 183:1 192:1 198:1 199:1 201:1 202:1 206:1 207:1 208:1 211:1 222:1 223:1 224:1 238:1 239:1 240:1 241:1 242:1 243:1 244:1 254:1 255:1 
1 0:1 3:1 7:1 10:1 12:1 16:1 19:1 23:1 32:1 35:1 38:1 39:1 40:1 41:1 42:1 43:1 44:1 45:1 46:1 47:1 52:1 53:1 59:1 60:1 61:1 62:1 68:1 74:1 75:1 76:1 82:1 90:1 99:1 100:1 101:1 102:1 103:1 104:1 105:1 106:1 107:1 108:1 109:1 110:1 113:1 114:1 115:1 116:1 117:1 118:1 119:1 120:1 121:1 122:1 123:1 124:1 125:1 126:1 127:1 129:1 130:1 131:1 132:1 133:1 134:1 135:1 136:1 137:1 138:1 139:1 140:1 141:1 142:1 143:1 144:1 145:1 146:1 154:1 155:1 156:1 157:1 159:1 161:1 162:1 163:1 170:1 171:1 172:1 173:1 179:1 181:1 182:1 183:1 185:1 186:1 187:1 192:1 193:1 195:1 196:1 197:1 198:1 200:1 201:1 205:1 206:1 224:1 227:1 228:1 236:1 240:1 241:1 243:1 244:1 245:1 250:1 252:1 253:1 254:1 255:1 
1 0:1 1:1 3:1 5:1 6:1 7:1 11:1 12:1 18:1 19:1 20:1 23:1 25:1 26:1 29:1 30:1 31:1 35:1 36:1 40:1 42:1 43:1 44:1 45:1 47:1 50:1 51:1 61:1 66:1 67:1 70:1 71:1 72:1 73:1 74:1 75:1 76:1 79:1 87:1 89:1 90:1 93:1 95:1 96:1 97:1 98:1 99:1 101:1 104:1 105:1 106:1 107:1 108:1 109:1 113:1 114:1 115:1 117:1 120:1 121:1 124:1 125:1 126:1 127:1 130:1 131:1 134:1 135:1 136:1 137:1 138:1 139:1 140:1 146:1 147:1 148:1 149:1 150:1 151:1 152:1 153:1 154:1 156:1 159:1 161:1 162:1 171:1 172:1 173:1 175:1 176:1 177:1 178:1 180:1 181:1 182:1 183:1 184:1 185:1 187:1 188:1 189:1 192:1 194:1 195:1 196:1 197:1 198:1 199:1 201:1 203:1 208:1 217:1 218:1 219:1 224:1 227:1 240:1 241:1 242:1 243:1 244:1 245:1 246:1 247:1 248:1 251:1 252:1 253:1 254:1 255:1 
1 2:1 3:1 4:1 7:1 8:1 9:1 10:1 13:1 14:1 16:1 17:1 18:1 19:1 23:1 24:1 25:1 26:1 29:1 30:1 31:1 32:1 33:1 36:1 37:1 38:1 39:1 44:1 49:1 52:1 53:1 54:1 55:1 60:1 69:1 70:1 83:1 88:1 89:1 90:1 91:1 92:1 93:1 94:1 95:1 96:1 97:1 98:1 99:1 100:1 101:1 102:1 103:1 104:1 105:1 106:1 107:1 108:1 109:1 110:1 111:1 113:1 114:1 115:1 116:1 117:1 118:1 119:1 120:1 121:1 122:1 123:1 127:1 128:1 139:1 144:1 147:1 155:1 156:1 157:1 158:1 160:1 162:1 163:1 164:1 165:1 166:1 167:1 168:1 169:1 170:1 171:1 172:1 176:1 178:1 179:1 180:1 181:1 182:1 183:1 185:1 186:1 187:1 188:1 192:1 194:1 207:1 208:1 224:1 225:1 239:1 240:1 255:1 
1 2:1 5:1 6:1 9:1 10:1 11:1 12:1 13:1 14:1 15:1 16:1 18:1 20:1 21:1 22:1 26:1 27:1 32:1 34:1 37:1 38:1 48:1 50:1 52:1 53:1 54:1 55:1 56:1 57:1 58:1 65:1 66:1 71:1 72:1 74:1 75:1 78:1 79:1 80:1 82:1 83:1 85:1 87:1 88:1 89:1 90:1 91:1 92:1 93:1 94:1 98:1 100:1 101:1 102:1 103:1 104:1 105:1 106:1 107:1 108:1 109:1 110:1 111:1 112:1 113:1 114:1 116:1 124:1 126:1 127:1 128:1 129:1 132:1 136:1 137:1 138:1 140:1 142:1 143:1 145:1 146:1 152:1 153:1 158:1 159:1 160:1 162:1 168:1 174:1 175:1 176:1 178:1 190:1 191:1 192:1 194:1 206:1 207:1 209:1 210:1 222:1 223:1 225:1 226:1 227:1 228:1 229:1 230:1 231:1 232:1 233:1 234:1 235:1 237:1 238:1 239:1 241:1 242:1 243:1 244:1 245:1 246:1 247:1 248:1 249:1 250:1 251:1 252:1 253:1 254:1 255:1 
0.7401948237049871 0:1 2:1 3:1 4:1 5:1 8:1 9:1 10:1 13:1 16:1 17:1 18:1 19:1 20:1 21:1 26:1 27:1 28:1 29:1 30:1 31:1 37:1 38:1 39:1 40:1 41:1 42:1 43:1 44:1 45:1 47:1 48:1 49:1 52:1 53:1 54:1 55:1 57:1 59:1 61:1 62:1 63:1 64:1 65:1 66:1 68:1 78:1 79:1 80:1 81:1 84:1 85:1 86:1 87:1 88:1 89:1 90:1 91:1 92:1 95:1 96:1 97:1 98:1 99:1 100:1 101:1 102:1 103:1 104:1 105:1 106:1 107:1 108:1 112:1 113:1 114:1 117:1 118:1 119:1 120:1 121:1 125:1 128:1 131:1 132:1 133:1 134:1 137:1 138:1 140:1 144:1 145:1 151:1 152:1 158:1 159:1 160:1 161:1 174:1 175:1 176:1 177:1 190:1 191:1 192:1 207:1 208:1 209:1 213:1 215:1 222:1 224:1 225:1 226:1 227:1 228:1 229:1 230:1 231:1 232:1 233:1 234:1 235:1 236:1 237:1 238:1 239:1 240:1 241:1 242:1 243:1 244:1 245:1 246:1 247:1 248:1 249:1 250:1 251:1 252:1 254:1 
0.4764013951283215 9:1 15:1 18:1 19:1 20:1 21:1 26:1 27:1 29:1 30:1 32:1 33:1 34:1 35:1 36:1 37:1 38:1 39:1 40:1 41:1 42:1 43:1 44:1 50:1 51:1 56:1 57:1 61:1 77:1 78:1 79:1 82:1 83:1 84:1 85:1 88:1 89:1 90:1 96:1 97:1 98:1 99:1 100:1 101:1 102:1 103:1 104:1 105:1 106:1 107:1 108:1 109:1 110:1 111:1 112:1 113:1 114:1 127:1 128:1 130:1 143:1 144:1 152:1 159:1 167:1 168:1 169:1 176:1 177:1 193:1 195:1 196:1 197:1 198:1 199:1 200:1 201:1 211:1 212:1 216:1 217:1 218:1 223:1 224:1 225:1 226:1 227:1 228:1 229:1 230:1 231:1 232:1 233:1 234:1 235:1 236:1 237:1 238:1 239:1 240:1 241:1 242:1 243:1 244:1 245:1 246:1 247:1 248:1 249:1 250:1 251:1 252:1 253:1 254:1 255:1 
1 0:1 1:1 3:1 6:1 7:1 8:1 9:1 10:1 12:1 13:1 14:1 15:1 16:1 19:1 26:1 28:1 30:1 31:1 32:1 36:1 37:1 38:1 40:1 41:1 42:1 48:1 53:1 54:1 55:1 56:1 57:1 58:1 59:1 60:1 61:1 62:1 67:1 69:1 70:1 71:1 72:1 73:1 74:1 78:1 79:1 81:1 85:1 86:1 87:1 88:1 89:1 90:1 91:1 93:1 106:1 107:1 110:1 111:1 112:1 113:1 114:1 115:1 124:1 125:1 128:1 131:1 132:1 133:1 134:1 135:1 136:1 137:1 138:1 139:1 140:1 141:1 144:1 146:1 149:1 150:1 151:1 152:1 153:1 154:1 155:1 156:1 157:1 161:1 162:1 163:1 164:1 165:1 166:1 167:1 168:1 169:1 172:1 173:1 177:1 178:1 179:1 180:1 186:1 187:1 188:1 189:1 190:1 193:1 194:1 195:1 196:1 197:1 198:1 199:1 200:1 201:1 202:1 203:1 204:1 205:1 210:1 213:1 215:1 216:1 221:1 238:1 254:1 255:1 
1 0:1 2:1 6:1 9:1 14:1 15:1 16:1 19:1 20:1 21:1 25:1 29:1 30:1 34:1 35:1 36:1 37:1 39:1 43:1 44:1 45:1 48:1 49:1 50:1 52:1 53:1 58:1 59:1 60:1 61:1 64:1 68:1 70:1 71:1 72:1 73:1 74:1 75:1 77:1 78:1 83:1 84:1 87:1 88:1 89:1 90:1 91:1 92:1 93:1 94:1 95:1 99:1 100:1 104:1 109:1 111:1 112:1 113:1 122:1 123:1 124:1 125:1 127:1 128:1 136:1 137:1 138:1 140:1 141:1 143:1 144:1 145:1 146:1 147:1 152:1 153:1 154:1 155:1 156:1 157:1 159:1 160:1 163:1 167:1 168:1 169:1 170:1 171:1 172:1 175:1 176:1 182:1 183:1 184:1 191:1 194:1 207:1 212:1 214:1 215:1 216:1 217:1 223:1 239:1 240:1 241:1 242:1 243:1 244:1 245:1 246:1 247:1 248:1 249:1 250:1 251:1 252:1 253:1 254:1 255:1 
1 1:1 4:1 5:1 10:1 14:1 20:1 21:1 28:1 30:1 31:1 36:1 37:1 39:1 40:1 46:1 47:1 52:1 53:1 54:1 55:1 56:1 62:1 65:1 67:1 68:1 75:1 76:1 77:1 78:1 81:1 82:1 86:1 88:1 89:1 94:1 104:1 110:1 116:1 119:1 128:1 129:1 132:1 134:1 140:1 141:1 143:1 146:1 147:1 148:1 149:1 155:1 156:1 157:1 158:1 160:1 164:1 165:1 166:1 167:1 168:1 172:1 173:1 174:1 175:1 176:1 179:1 181:1 184:1 185:1 206:1 211:1 212:1 213:1 214:1 215:1 216:1 217:1 220:1 240:1 241:1 242:1 243:1 244:1 245:1 246:1 247:1 248:1 249:1 250:1 251:1 252:1 253:1 254:1 255:1 
1 3:1 4:1 6:1 7:1 8:1 9:1 10:1 11:1 12:1 13:1 14:1 16:1 17:1 19:1 20:1 25:1 28:1 29:1 30:1 32:1 33:1 34:1 35:1 36:1 45:1 46:1 48:1 49:1 50:1 53:1 54:1 55:1 57:1 58:1 60:1 68:1 69:1 70:1 71:1 72:1 75:1 76:1 78:1 79:1 81:1 82:1 84:1 87:1 88:1 92:1 95:1 97:1 98:1 99:1 100:1 101:1 102:1 103:1 104:1 105:1 106:1 107:1 108:1 109:1 110:1 111:1 115:1 116:1 117:1 118:1 119:1 120:1 121:1 122:1 123:1 124:1 125:1 126:1 127:1 128:1 129:1 131:1 143:1 144:1 145:1 147:1 148:1 157:1 158:1 160:1 161:1 176:1 177:1 180:1 188:1 191:1 192:1 193:1 195:1 196:1 197:1 198:1 199:1 200:1 201:1 202:1 203:1 204:1 207:1 208:1 223:1 225:1 239:1 240:1 241:1 242:1 255:1 
1 0:1 2:1 3:1 4:1 5:1 6:1 8:1 10:1 11:1 12:1 14:1 16:1 17:1 18:1 19:1 20:1 21:1 22:1 23:1 24:1 25:1 26:1 30:1 32:1 35:1 39:1 40:1 45:1 46:1 50:1 52:1 53:1 54:1 55:1 56:1 60:1 61:1 63:1 64:1 65:1 69:1 70:1 71:1 72:1 76:1 77:1 80:1 81:1 83:1 84:1 85:1 86:1 87:1 88:1 91:1 92:1 93:1 94:1 95:1 96:1 97:1 100:1 101:1 102:1 103:1 104:1 106:1 110:1 111:1 112:1 114:1 118:1 119:1 120:1 127:1 128:1 129:1 130:1 141:1 142:1 143:1 144:1 146:1 147:1 156:1 157:1 158:1 159:1 160:1 162:1 163:1 164:1 165:1 166:1 167:1 169:1 170:1 171:1 172:1 173:1 175:1 176:1 181:1 182:1 183:1 184:1 185:1 186:1 192:1 207:1 208:1 223:1 224:1 239:1 240:1 244:1 245:1 246:1 247:1 248:1 249:1 250:1 251:1 252:1 253:1 254:1 255:1 
1 0:1 1:1 17:1 20:1 21:1 22:1 23:1 24:1 25:1 26:1 27:1 28:1 29:1 30:1 36:1 37:1 38:1 39:1 40:1 41:1 42:1 43:1 44:1 45:1 46:1 49:1 51:1 52:1 59:1 60:1 62:1 63:1 65:1 67:1 74:1 76:1 79:1 89:1 90:1 95:1 98:1 111:1 114:1 115:1 121:1 122:1 123:1 126:1 127:1 130:1 131:1 132:1 133:1 134:1 135:1 136:1 137:1 138:1 139:1 140:1 141:1 142:1 143:1 144:1 145:1 146:1 147:1 148:1 149:1 150:1 151:1 152:1 153:1 154:1 155:1 156:1 158:1 159:1 162:1 163:1 164:1 165:1 166:1 167:1 168:1 169:1 170:1 172:1 173:1 174:1 177:1 178:1 184:1 185:1 186:1 187:1 189:1 190:1 192:1 205:1 208:1 213:1 214:1 224:1 238:1 239:1 240:1 241:1 242:1 243:1 244:1 246:1 247:1 248:1 249:1 250:1 251:1 252:1 253:1 254:1 255:1 
1 0:1 1:1 2:1 5:1 6:1 9:1 10:1 12:1 14:1 16:1 17:1 18:1 21:1 22:1 26:1 28:1 29:1 30:1 33:1 34:1 37:1 40:1 41:1 42:1 43:1 44:1 45:1 46:1 48:1 49:1 50:1 53:1 56:1 57:1 59:1 60:1 62:1 64:1 65:1 66:1 67:1 71:1 76:1 78:1 81:1 83:1 84:1 85:1 86:1 87:1 88:1 94:1 95:1 99:1 100:1 101:1 102:1 103:1 104:1 105:1 106:1 111:1 113:1 114:1 115:1 116:1 128:1 129:1 131:1 132:1 133:1 134:1 135:1 136:1 137:1 138:1 139:1 140:1 141:1 142:1 148:1 149:1 151:1 152:1 153:1 154:1 155:1 156:1 157:1 161:1 164:1 165:1 168:1 169:1 175:1 176:1 191:1 208:1 209:1 210:1 211:1 212:1 213:1 214:1 215:1 216:1 217:1 218:1 219:1 220:1 221:1 222:1 223:1 227:1 228:1 229:1 230:1 231:1 232:1 241:1 242:1 243:1 244:1 245:1 246:1 247:1 248:1 249:1 250:1 252:1 253:1 254:1 255:1 
0.320243528061325 2:1 4:1 6:1 7:1 12:1 13:1 16:1 17:1 18:1 19:1 26:1 27:1 32:1 33:1 34:1 46:1 47:1 52:1 53:1 54:1 55:1 56:1 57:1 58:1 59:1 60:1 63:1 67:1 76:1 77:1 80:1 81:1 82:1 93:1 114:1 115:1 116:1 117:1 118:1 119:1 120:1 121:1 122:1 123:1 124:1 125:1 126:1 127:1 129:1 130:1 131:1 132:1 133:1 134:1 135:1 136:1 137:1 138:1 139:1 140:1 142:1 143:1 145:1 146:1 147:1 148:1 149:1 150:1 151:1 152:1 153:1 154:1 155:1 156:1 157:1 160:1 161:1 162:1 172:1 173:1 176:1 191:1 192:1 196:1 208:1 209:1 210:1 211:1 212:1 213:1 214:1 215:1 216:1 217:1 218:1 219:1 220:1 221:1 222:1 223:1 224:1 225:1 226:1 227:1 228:1 229:1 230:1 231:1 232:1 233:1 234:1 235:1 236:1 237:1 238:1 239:1 247:1 248:1 249:1 250:1 251:1 252:1 253:1 254:1 255:1 
0.5761824482706249 1:1 2:1 3:1 5:1 7:1 10:1 12:1 13:1 14:1 15:1 19:1 21:1 23:1 24:1 25:1 32:1 34:1 40:1 41:1 42:1 45:1 46:1 47:1 48:1 49:1 52:1 53:1 54:1 55:1 56:1 58:1 59:1 60:1 61:1 65:1 66:1 67:1 68:1 69:1 70:1 71:1 72:1 73:1 74:1 75:1 76:1 78:1 79:1 80:1 81:1 83:1 84:1 85:1 88:1 89:1 90:1 91:1 93:1 94:1 95:1 97:1 101:1 102:1 105:1 106:1 110:1 111:1 114:1 115:1 116:1 117:1 121:1 122:1 123:1 124:1 125:1 126:1 127:1 128:1 131:1 134:1 135:1 142:1 143:1 144:1 148:1 149:1 154:1 155:1 160:1 163:1 164:1 165:1 171:1 172:1 173:1 175:1 183:1 184:1 185:1 191:1 192:1 199:1 200:1 201:1 204:1 207:1 209:1 223:1 225:1 226:1 235:1 239:1 241:1 242:1 243:1 244:1 245:1 246:1 247:1 248:1 249:1 250:1 251:1 255:1 
1 20:1 21:1 26:1 27:1 31:1 40:1 41:1 42:1 43:1 47:1 51:1 52:1 53:1 54:1 55:1 56:1 57:1 58:1 66:1 67:1 68:1 69:1 70:1 75:1 76:1 79:1 82:1 83:1 84:1 86:1 88:1 89:1 91:1 92:1 93:1 98:1 109:1 112:1 114:1 115:1 116:1 117:1 118:1 119:1 120:1 121:1 122:1 123:1 124:1 125:1 126:1 127:1 141:1 142:1 144:1 158:1 160:1 168:1 169:1 175:1 176:1 192:1 195:1 196:1 197:1 198:1 199:1 200:1 201:1 202:1 203:1 207:1 208:1 209:1 210:1 223:1 224:1 225:1 226:1 227:1 228:1 229:1 230:1 231:1 232:1 233:1 234:1 235:1 236:1 237:1 238:1 239:1 246:1 
1 16:1 17:1 18:1 19:1 20:1 21:1 22:1 23:1 24:1 25:1 26:1 27:1 28:1 29:1 30:1 31:1 35:1 36:1 37:1 38:1 39:1 40:1 41:1 42:1 43:1 45:1 46:1 47:1 51:1 54:1 59:1 63:1 66:1 67:1 69:1 82:1 83:1 93:1 94:1 96:1 97:1 98:1 99:1 100:1 101:1 102:1 103:1 104:1 105:1 106:1 107:1 108:1 109:1 110:1 112:1 114:1 115:1 116:1 117:1 118:1 119:1 120:1 121:1 123:1 124:1 125:1 126:1 127:1 128:1 140:1 142:1 143:1 144:1 152:1 153:1 160:1 168:1 176:1 187:1 188:1 192:1 193:1 208:1 209:1 210:1 211:1 212:1 213:1 214:1 215:1 216:1 217:1 218:1 219:1 220:1 221:1 222:1 223:1 239:1 248:1 249:1 250:1 251:1 
1 1:1 6:1 8:1 10:1 11:1 14:1 15:1 16:1 17:1 19:1 23:1 24:1 26:1 27:1 33:1 34:1 35:1 36:1 38:1 39:1 40:1 41:1 43:1 44:1 49:1 51:1 54:1 55:1 56:1 57:1 58:1 59:1 60:1 61:1 62:1 76:1 79:1 82:1 87:1 88:1 89:1 90:1 92:1 93:1 97:1 98:1 103:1 104:1 105:1 107:1 109:1 110:1 113:1 114:1 119:1 120:1 121:1 122:1 125:1 126:1 128:1 129:1 132:1 135:1 136:1 137:1 138:1 139:1 141:1 142:1 145:1 146:1 151:1 152:1 153:1 157:1 158:1 162:1 163:1 164:1 170:1 171:1 172:1 173:1 181:1 182:1 183:1 184:1 185:1 186:1 197:1 198:1 199:1 200:1 207:1 210:1 211:1 216:1 221:1 223:1 239:1 240:1 241:1 255:1 
0.869835528545763 0:1 2:1 13:1 14:1 15:1 17:1 18:1 19:1 20:1 22:1 23:1 24:1 25:1 26:1 27:1 28:1 37:1 43:1 44:1 48:1 50:1 53:1 54:1 55:1 56:1 57:1 58:1 59:1 60:1 61:1 62:1 63:1 64:1 65:1 66:1 67:1 69:1 78:1 84:1 100:1 115:1 116:1 117:1 118:1 119:1 120:1 121:1 122:1 123:1 124:1 125:1 126:1 127:1 128:1 129:1 130:1 131:1 132:1 133:1 134:1 135:1 136:1 137:1 138:1 139:1 140:1 141:1 142:1 144:1 146:1 147:1 148:1 155:1 156:1 160:1 162:1 163:1 164:1 165:1 166:1 167:1 168:1 169:1 170:1 171:1 172:1 173:1 174:1 182:1 183:1 184:1 189:1 195:1 196:1 197:1 198:1 204:1 205:1 208:1 211:1 220:1 221:1 224:1 240:1 241:1 242:1 243:1 244:1 245:1 246:1 247:1 248:1 249:1 250:1 251:1 252:1 253:1 254:1 255:1 
1 16:1 17:1 18:1 22:1 23:1 24:1 25:1 26:1 27:1 31:1 32:1 37:1 38:1 39:1 40:1 41:1 42:1 43:1 44:1 48:1 49:1 60:1 67:1 77:1 78:1 83:1 84:1 85:1 86:1 87:1 88:1 89:1 90:1 91:1 92:1 93:1 98:1 99:1 100:1 101:1 102:1 103:1 104:1 105:1 106:1 107:1 108:1 109:1 110:1 114:1 115:1 116:1 117:1 118:1 119:1 120:1 121:1 122:1 123:1 124:1 125:1 126:1 130:1 132:1 133:1 134:1 135:1 136:1 137:1 138:1 139:1 145:1 146:1 157:1 158:1 161:1 162:1 163:1 164:1 165:1 166:1 167:1 168:1 169:1 170:1 171:1 172:1 173:1 174:1 178:1 189:1 190:1 193:1 196:1 197:1 198:1 199:1 200:1 201:1 202:1 203:1 204:1 224:1 225:1 226:1 239:1 242:1 254:1 255:1 
1 1:1 2:1 5:1 6:1 10:1 13:1 19:1 32:1 38:1 47:1 51:1 54:1 58:1 63:1 64:1 67:1 68:1 69:1 70:1 71:1 72:1 73:1 74:1 75:1 76:1 83:1 84:1 85:1 86:1 87:1 88:1 89:1 90:1 91:1 95:1 98:1 107:1 108:1 109:1 112:1 114:1 115:1 116:1 117:1 118:1 119:1 120:1 121:1 122:1 123:1 124:1 125:1 126:1 127:1 128:1 131:1 132:1 133:1 134:1 139:1 140:1 141:1 142:1 144:1 148:1 149:1 151:1 159:1 160:1 175:1 195:1 196:1 197:1 198:1 199:1 200:1 201:1 202:1 203:1 208:1 209:1 210:1 211:1 212:1 213:1 214:1 215:1 216:1 217:1 218:1 219:1 220:1 221:1 222:1 223:1 224:1 225:1 226:1 227:1 228:1 229:1 230:1 231:1 232:1 233:1 234:1 235:1 236:1 237:1 238:1 239:1 240:1 252:1 253:1 254:1 
0.3456595162157966 3:1 6:1 10:1 12:1 13:1 16:1 18:1 22:1 23:1 24:1 25:1 26:1 27:1 28:1 32:1 34:1 35:1 39:1 43:1 44:1 48:1 50:1 58:1 60:1 61:1 63:1 64:1 69:1 70:1 72:1 73:1 74:1 76:1 77:1 80:1 83:1 84:1 85:1 86:1 87:1 88:1 89:1 90:1 91:1 92:1 96:1 98:1 99:1 103:1 104:1 105:1 106:1 115:1 116:1 123:1 124:1 125:1 130:1 131:1 132:1 133:1 134:1 135:1 136:1 137:1 138:1 139:1 140:1 141:1 146:1 150:1 151:1 152:1 157:1 158:1 160:1 162:1 163:1 164:1 165:1 166:1 167:1 168:1 169:1 170:1 171:1 172:1 173:1 176:1 192:1 197:1 203:1 208:1 213:1 214:1 215:1 218:1 219:1 220:1 224:1 225:1 226:1 227:1 228:1 229:1 230:1 231:1 232:1 233:1 234:1 235:1 236:1 237:1 238:1 239:1 241:1 242:1 243:1 244:1 245:1 246:1 247:1 248:1 249:1 250:1 251:1 252:1 253:1 254:1 255:1 
1 0:1 2:1 6:1 7:1 8:1 9:1 10:1 11:1 12:1 13:1 14:1 15:1 16:1 23:1 24:1 25:1 26:1 27:1 28:1 29:1 30:1 31:1 32:1 46:1 48:1 49:1 50:1 51:1 52:1 77:1 78:1 79:1 80:1 81:1 83:1 84:1 85:1 86:1 88:1 89:1 90:1 96:1 97:1 98:1 99:1 101:1 104:1 105:1 106:1 107:1 108:1 109:1 110:1 125:1 126:1 127:1 129:1 130:1 131:1 132:1 146:1 147:1 148:1 149:1 150:1 151:1 159:1 163:1 164:1 165:1 166:1 167:1 168:1 169:1 170:1 171:1 172:1 173:1 174:1 175:1 176:1 182:1 187:1 191:1 204:1 205:1 207:1 208:1 224:1 225:1 226:1 227:1 228:1 229:1 236:1 240:1 241:1 242:1 243:1 244:1 245:1 246:1 247:1 248:1 249:1 250:1 251:1 252:1 253:1 254:1 255:1 
1 4:1 5:1 10:1 12:1 17:1 18:1 20:1 21:1 23:1 24:1 25:1 26:1 28:1 30:1 31:1 32:1 33:1 34:1 35:1 36:1 37:1 44:1 46:1 47:1 50:1 51:1 52:1 53:1 54:1 55:1 56:1 57:1 58:1 59:1 60:1 61:1 71:1 77:1 79:1 80:1 83:1 85:1 93:1 96:1 98:1 99:1 100:1 115:1 116:1 117:1 118:1 119:1 120:1 121:1 122:1 123:1 124:1 125:1 126:1 128:1 129:1 145:1 160:1 163:1 164:1 167:1 168:1 169:1 170:1 171:1 172:1 173:1 174:1 175:1 176:1 177:1 192:1 195:1 197:1 198:1 199:1 200:1 201:1 202:1 203:1 204:1 205:1 225:1 226:1 227:1 228:1 229:1 230:1 231:1 232:1 233:1 234:1 235:1 236:1 237:1 238:1 239:1 240:1 241:1 242:1 243:1 244:1 245:1 246:1 247:1 248:1 249:1 250:1 251:1 252:1 253:1 254:1 255:1 
1 0:1 1:1 2:1 3:1 4:1 5:1 6:1 7:1 8:1 9:1 10:1 11:1 12:1 14:1 15:1 16:1 17:1 18:1 19:1 20:1 21:1 22:1 23:1 24:1 25:1 26:1 27:1 28:1 30:1 31:1 32:1 33:1 34:1 35:1 36:1 42:1 43:1 44:1 46:1 47:1 49:1 50:1 51:1 60:1 61:1 65:1 66:1 69:1 80:1 83:1 84:1 85:1 86:1 89:1 90:1 92:1 96:1 97:1 106:1 109:1 110:1 140:1 141:1 142:1 145:1 146:1 147:1 148:1 149:1 150:1 151:1 152:1 153:1 154:1 155:1 156:1 157:1 158:1 161:1 164:1 167:1 170:1 171:1 172:1 173:1 174:1 180:1 182:1 183:1 184:1 185:1 186:1 187:1 188:1 189:1 190:1 194:1 196:1 198:1 199:1 200:1 206:1 207:1 212:1 213:1 214:1 215:1 218:1 219:1 223:1 239:1 240:1 241:1 242:1 243:1 244:1 245:1 246:1 247:1 248:1 249:1 250:1 251:1 252:1 253:1 254:1 
0.4955370850265349 1:1 2:1 3:1 6:1 7:1 8:1 9:1 10:1 11:1 12:1 15:1 19:1 20:1 21:1 22:1 23:1 24:1 25:1 26:1 27:1 28:1 31:1 33:1 34:1 35:1 37:1 38:1 39:1 40:1 41:1 42:1 43:1 44:1 47:1 49:1 50:1 51:1 60:1 63:1 65:1 66:1 67:1 69:1 76:1 81:1 82:1 84:1 93:1 95:1 96:1 97:1 98:1 99:1 101:1 102:1 103:1 104:1 105:1 106:1 107:1 108:1 109:1 112:1 113:1 114:1 116:1 117:1 118:1 120:1 122:1 123:1 126:1 127:1 128:1 129:1 130:1 131:1 133:1 139:1 141:1 142:1 143:1 149:1 150:1 151:1 152:1 154:1 158:1 159:1 162:1 163:1 164:1 165:1 166:1 167:1 168:1 169:1 170:1 171:1 172:1 173:1 174:1 175:1 177:1 183:1 184:1 185:1 190:1 191:1 192:1 206:1 207:1 209:1 222:1 223:1 224:1 225:1 226:1 227:1 228:1 229:1 230:1 237:1 238:1 239:1 240:1 241:1 242:1 243:1 244:1 245:1 246:1 247:1 248:1 249:1 250:1 251:1 252:1 253:1 254:1 255:1 
1 1:1 5:1 6:1 7:1 16:1 17:1 18:1 19:1 22:1 23:1 26:1 27:1 28:1 29:1 30:1 41:1 47:1 51:1 52:1 53:1 54:1 55:1 57:1 58:1 60:1 63:1 67:1 70:1 71:1 73:1 76:1 77:1 82:1 83:1 93:1 94:1 95:1 98:1 99:1 100:1 101:1 102:1 103:1 104:1 105:1 106:1 107:1 108:1 109:1 113:1 114:1 115:1 116:1 117:1 118:1 119:1 121:1 122:1 123:1 124:1 125:1 126:1 131:1 132:1 140:1 141:1 144:1 150:1 151:1 159:1 160:1 161:1 167:1 175:1 176:1 177:1 180:1 186:1 188:1 191:1 192:1 196:1 197:1 201:1 202:1 205:1 206:1 208:1 209:1 210:1 211:1 212:1 213:1 214:1 215:1 216:1 217:1 218:1 219:1 220:1 221:1 222:1 225:1 226:1 227:1 228:1 229:1 230:1 231:1 232:1 233:1 234:1 235:1 236:1 237:1 238:1 239:1 
1 6:1 16:1 17:1 18:1 19:1 24:1 25:1 26:1 27:1 28:1 29:1 30:1 31:1 32:1 33:1 34:1 35:1 36:1 37:1 38:1 39:1 40:1 45:1 47:1 48:1 49:1 50:1 64:1 65:1 93:1 94:1 95:1 96:1 97:1 98:1 99:1 100:1 101:1 102:1 103:1 104:1 105:1 106:1 107:1 108:1 109:1 110:1 111:1 112:1 127:1 130:1 135:1 140:1 143:1 159:1 163:1 166:1 167:1 168:1 175:1 197:1 198:1 200:1 201:1 202:1 203:1 204:1 206:1 208:1 213:1 214:1 215:1 216:1 217:1 218:1 219:1 220:1 224:1 225:1 226:1 227:1 228:1 229:1 230:1 234:1 235:1 236:1 237:1 238:1 239:1 240:1 241:1 242:1 243:1 244:1 245:1 248:1 249:1 253:1 254:1 255:1 
1 5:1 7:1 8:1 11:1 12:1 14:1 15:1 16:1 17:1 19:1 20:1 21:1 22:1 24:1 28:1 32:1 33:1 44:1 45:1 46:1 47:1 48:1 49:1 52:1 53:1 54:1 55:1 56:1 57:1 58:1 59:1 60:1 65:1 68:1 69:1 70:1 71:1 72:1 73:1 74:1 75:1 76:1 77:1 85:1 92:1 95:1 96:1 97:1 101:1 106:1 107:1 108:1 109:1 113:1 114:1 115:1 116:1 117:1 118:1 119:1 120:1 121:1 122:1 123:1 124:1 125:1 126:1 129:1 130:1 131:1 132:1 133:1 134:1 135:1 136:1 137:1 138:1 139:1 140:1 142:1 144:1 145:1 146:1 148:1 154:1 156:1 157:1 161:1 162:1 163:1 164:1 165:1 166:1 167:1 168:1 169:1 170:1 171:1 172:1 173:1 175:1 177:1 189:1 191:1 193:1 194:1 195:1 196:1 197:1 198:1 199:1 205:1 219:1 220:1 224:1 234:1 235:1 236:1 237:1 238:1 239:1 240:1 241:1 242:1 243:1 244:1 245:1 246:1 247:1 248:1 249:1 250:1 251:1 252:1 253:1 254:1 255:1 
0.4133122639504511 0:1 1:1 4:1 6:1 7:1 8:1 14:1 16:1 27:1 28:1 29:1 30:1 31:1 32:1 33:1 36:1 37:1 46:1 47:1 48:1 49:1 50:1 54:1 55:1 56:1 57:1 58:1 59:1 60:1 61:1 64:1 65:1 67:1 68:1 69:1 70:1 71:1 72:1 73:1 74:1 75:1 76:1 77:1 84:1 85:1 96:1 97:1 98:1 110:1 113:1 114:1 115:1 116:1 117:1 118:1 119:1 120:1 121:1 122:1 123:1 124:1 125:1 126:1 127:1 130:1 131:1 132:1 134:1 135:1 136:1 138:1 139:1 140:1 143:1 146:1 147:1 148:1 149:1 150:1 151:1 152:1 153:1 154:1 155:1 156:1 159:1 166:1 167:1 176:1 177:1 192:1 193:1 207:1 210:1 211:1 212:1 213:1 214:1 215:1 216:1 217:1 218:1 219:1 220:1 221:1 222:1 223:1 226:1 227:1 228:1 229:1 230:1 231:1 232:1 233:1 234:1 235:1 236:1 237:1 238:1 239:1 242:1 243:1 244:1 245:1 246:1 247:1 248:1 249:1 250:1 251:1 252:1 253:1 254:1 
1 1:1 3:1 4:1 7:1 9:1 14:1 16:1 17:1 18:1 19:1 32:1 37:1 38:1 39:1 40:1 41:1 42:1 43:1 44:1 45:1 46:1 47:1 58:1 60:1 61:1 63:1 64:1 65:1 66:1 78:1 79:1 80:1 84:1 97:1 98:1 99:1 100:1 101:1 102:1 103:1 104:1 105:1 106:1 107:1 108:1 109:1 110:1 111:1 113:1 114:1 115:1 116:1 117:1 118:1 119:1 120:1 121:1 122:1 123:1 124:1 125:1 128:1 144:1 149:1 150:1 151:1 160:1 176:1 192:1 193:1 194:1 195:1 196:1 197:1 198:1 199:1 200:1 201:1 202:1 203:1 204:1 205:1 206:1 207:1 209:1 210:1 211:1 212:1 213:1 214:1 215:1 216:1 217:1 218:1 219:1 220:1 221:1 222:1 223:1 228:1 229:1 230:1 231:1 232:1 233:1 234:1 235:1 236:1 237:1 238:1 239:1 242:1 243:1 244:1 245:1 248:1 250:1 251:1 252:1 253:1 255:1 
1 16:1 17:1 18:1 24:1 25:1 26:1 28:1 32:1 33:1 36:1 37:1 43:1 44:1 48:1 49:1 51:1 52:1 53:1 54:1 55:1 56:1 57:1 58:1 59:1 60:1 61:1 67:1 68:1 76:1 77:1 78:1 79:1 80:1 83:1 94:1 98:1 99:1 101:1 102:1 103:1 104:1 105:1 106:1 107:1 108:1 109:1 112:1 114:1 115:1 116:1 117:1 118:1 119:1 120:1 121:1 122:1 123:1 124:1 125:1 126:1 128:1 131:1 133:1 140:1 142:1 143:1 144:1 147:1 159:1 160:1 161:1 168:1 169:1 175:1 191:1 196:1 197:1 198:1 199:1 200:1 201:1 202:1 203:1 208:1 209:1 210:1 211:1 219:1 220:1 221:1 222:1 223:1 224:1 225:1 226:1 227:1 228:1 229:1 230:1 231:1 232:1 233:1 234:1 235:1 236:1 237:1 238:1 239:1 249:1 253:1 
0.02010602735488526 1:1 4:1 7:1 14:1 16:1 18:1 19:1 20:1 24:1 34:1 35:1 36:1 37:1 39:1 40:1 41:1 42:1 46:1 48:1 49:1 50:1 51:1 52:1 53:1 54:1 55:1 56:1 57:1 58:1 61:1 62:1 64:1 66:1 78:1 79:1 80:1 82:1 83:1 84:1 85:1 86:1 87:1 88:1 90:1 92:1 94:1 95:1 97:1 98:1 103:1 110:1 111:1 113:1 114:1 115:1 117:1 118:1 119:1 120:1 121:1 122:1 123:1 126:1 127:1 130:1 131:1 133:1 134:1 135:1 136:1 143:1 146:1 147:1 148:1 149:1 156:1 157:1 159:1 162:1 163:1 164:1 165:1 166:1 167:1 168:1 169:1 170:1 171:1 172:1 173:1 175:1 176:1 177:1 207:1 211:1 212:1 213:1 214:1 215:1 216:1 217:1 218:1 220:1 223:1 224:1 225:1 226:1 227:1 228:1 229:1 231:1 232:1 233:1 234:1 235:1 236:1 237:1 238:1 239:1 240:1 241:1 242:1 243:1 244:1 245:1 246:1 247:1 248:1 249:1 250:1 251:1 252:1 253:1 254:1 255:1 
1 4:1 6:1 7:1 8:1 15:1 20:1 28:1 31:1 35:1 36:1 37:1 38:1 39:1 40:1 41:1 42:1 43:1 44:1 45:1 46:1 48:1 49:1 51:1 60:1 61:1 62:1 66:1 77:1 78:1 83:1 84:1 97:1 98:1 99:1 100:1 101:1 102:1 103:1 104:1 105:1 106:1 107:1 108:1 109:1 110:1 112:1 125:1 128:1 132:1 139:1 141:1 144:1 150:1 151:1 152:1 160:1 175:1 176:1 182:1 183:1 188:1 192:1 208:1 209:1 210:1 211:1 212:1 213:1 214:1 215:1 216:1 217:1 218:1 219:1 220:1 221:1 222:1 223:1 224:1 225:1 226:1 227:1 228:1 229:1 230:1 231:1 232:1 233:1 234:1 235:1 236:1 237:1 238:1 239:1 251:1 
1 1:1 2:1 3:1 5:1 6:1 10:1 11:1 13:1 17:1 21:1 34:1 35:1 36:1 37:1 38:1 39:1 40:1 41:1 42:1 43:1 44:1 45:1 46:1 48:1 50:1 51:1 52:1 63:1 64:1 66:1 70:1 75:1 78:1 79:1 82:1 83:1 85:1 86:1 87:1 89:1 90:1 91:1 110:1 111:1 113:1 114:1 115:1 116:1 117:1 118:1 119:1 120:1 121:1 122:1 123:1 124:1 125:1 130:1 131:1 142:1 143:1 148:1 149:1 150:1 151:1 152:1 153:1 154:1 155:1 156:1 157:1 158:1 160:1 161:1 166:1 167:1 168:1 174:1 175:1 176:1 177:1 178:1 179:1 180:1 181:1 182:1 183:1 184:1 185:1 186:1 187:1 188:1 190:1 191:1 206:1 207:1 218:1 222:1 223:1 224:1 227:1 228:1 229:1 230:1 231:1 232:1 233:1 234:1 239:1 240:1 241:1 242:1 243:1 244:1 245:1 246:1 247:1 248:1 249:1 250:1 251:1 252:1 253:1 254:1 255:1 
1 3:1 4:1 7:1 8:1 9:1 10:1 14:1 21:1 22:1 31:1 32:1 33:1 34:1 35:1 36:1 37:1 38:1 39:1 40:1 41:1 42:1 43:1 44:1 45:1 46:1 47:1 50:1 51:1 60:1 62:1 66:1 72:1 73:1 74:1 75:1 76:1 77:1 79:1 80:1 82:1 88:1 89:1 90:1 91:1 92:1 95:1 96:1 98:1 99:1 100:1 101:1 102:1 103:1 109:1 110:1 115:1 116:1 117:1 118:1 119:1 120:1 121:1 122:1 123:1 124:1 125:1 126:1 128:1 130:1 138:1 141:1 142:1 147:1 148:1 149:1 150:1 151:1 152:1 153:1 154:1 155:1 156:1 157:1 158:1 160:1 163:1 168:1 172:1 173:1 174:1 176:1 208:1 209:1 210:1 211:1 212:1 213:1 214:1 215:1 216:1 217:1 218:1 219:1 220:1 221:1 222:1 223:1 224:1 225:1 226:1 227:1 228:1 229:1 230:1 231:1 232:1 233:1 234:1 235:1 236:1 237:1 238:1 239:1 240:1 241:1 242:1 243:1 244:1 245:1 246:1 247:1 248:1 253:1 
1 2:1 3:1 5:1 6:1 9:1 10:1 11:1 13:1 14:1 18:1 21:1 22:1 24:1 25:1 26:1 27:1 28:1 29:1 33:1 34:1 37:1 38:1 39:1 40:1 41:1 42:1 43:1 44:1 46:1 48:1 49:1 50:1 59:1 65:1 69:1 70:1 72:1 75:1 78:1 79:1 81:1 94:1 95:1 97:1 98:1 99:1 100:1 101:1 102:1 103:1 104:1 105:1 106:1 107:1 108:1 109:1 113:1 123:1 124:1 125:1 126:1 128:1 130:1 140:1 143:1 144:1 146:1 149:1 150:1 151:1 152:1 153:1 154:1 155:1 156:1 159:1 168:1 169:1 175:1 192:1 193:1 194:1 195:1 196:1 208:1 209:1 210:1 211:1 212:1 213:1 214:1 215:1 216:1 217:1 218:1 219:1 220:1 221:1 222:1 223:1 227:1 235:1 236:1 237:1 238:1 239:1 245:1 246:1 247:1 248:1 249:1 250:1 251:1 252:1 253:1 254:1 255:1 
1 4:1 5:1 6:1 13:1 15:1 17:1 18:1 29:1 30:1 31:1 33:1 36:1 37:1 38:1 39:1 40:1 41:1 42:1 45:1 47:1 52:1 53:1 54:1 55:1 56:1 57:1 58:1 62:1 63:1 67:1 70:1 71:1 72:1 73:1 74:1 80:1 82:1 83:1 84:1 85:1 86:1 87:1 88:1 89:1 90:1 91:1 92:1 97:1 98:1 99:1 100:1 101:1 102:1 103:1 105:1 106:1 107:1 108:1 109:1 110:1 112:1 114:1 126:1 127:1 128:1 130:1 143:1 144:1 145:1 146:1 147:1 152:1 156:1 157:1 159:1 160:1 175:1 176:1 179:1 180:1 181:1 182:1 183:1 184:1 185:1 186:1 187:1 190:1 191:1 192:1 195:1 206:1 208:1 222:1 224:1 239:1 240:1 241:1 244:1 245:1 248:1 249:1 251:1 
0.3356414037726261 15:1 17:1 18:1 19:1 20:1 26:1 48:1 54:1 55:1 57:1 58:1 61:1 62:1 63:1 66:1 67:1 68:1 69:1 70:1 71:1 72:1 73:1 74:1 76:1 77:1 78:1 79:1 80:1 81:1 83:1 86:1 92:1 95:1 102:1 103:1 104:1 109:1 110:1 111:1 125:1 129:1 130:1 131:1 132:1 133:1 134:1 135:1 136:1 137:1 138:1 139:1 140:1 141:1 144:1 157:1 158:1 160:1 162:1 163:1 164:1 165:1 166:1 171:1 174:1 175:1 176:1 177:1 183:1 185:1 191:1 206:1 207:1 211:1 212:1 213:1 214:1 215:1 216:1 217:1 218:1 223:1 224:1 225:1 226:1 240:1 241:1 242:1 243:1 244:1 245:1 246:1 247:1 248:1 249:1 250:1 251:1 252:1 253:1 254:1 255:1 
0.2794112861031079 0:1 3:1 6:1 8:1 9:1 10:1 11:1 14:1 15:1 16:1 19:1 20:1 23:1 24:1 26:1 27:1 35:1 36:1 37:1 42:1 43:1 47:1 48:1 51:1 56:1 60:1 66:1 67:1 68:1 69:1 70:1 71:1 72:1 73:1 74:1 75:1 76:1 77:1 78:1 79:1 80:1 81:1 82:1 83:1 84:1 85:1 86:1 87:1 88:1 89:1 90:1 91:1 92:1 93:1 94:1 98:1 107:1 113:1 114:1 125:1 126:1 129:1 141:1 142:1 145:1 146:1 147:1 148:1 149:1 150:1 151:1 152:1 153:1 154:1 155:1 156:1 158:1 165:1 167:1 173:1 177:1 178:1 183:1 184:1 189:1 191:1 207:1 223:1 238:1 239:1 240:1 241:1 243:1 244:1 245:1 246:1 247:1 248:1 249:1 250:1 251:1 252:1 253:1 254:1 255:1 
0.6029373234717101 0:1 1:1 2:1 3:1 17:1 18:1 19:1 27:1 28:1 29:1 35:1 37:1 38:1 39:1 40:1 41:1 42:1 43:1 44:1 45:1 51:1 57:1 58:1 59:1 61:1 62:1 63:1 66:1 67:1 80:1 81:1 82:1 83:1 92:1 93:1 94:1 95:1 96:1 97:1 98:1 99:1 100:1 101:1 102:1 103:1 104:1 105:1 106:1 107:1 108:1 109:1 110:1 111:1 112:1 113:1 115:1 116:1 117:1 118:1 119:1 120:1 121:1 122:1 123:1 124:1 125:1 127:1 137:1 140:1 141:1 142:1 144:1 145:1 149:1 155:1 156:1 157:1 158:1 159:1 161:1 162:1 164:1 165:1 166:1 168:1 169:1 175:1 176:1 177:1 178:1 182:1 187:1 188:1 189:1 190:1 191:1 192:1 193:1 196:1 197:1 198:1 199:1 208:1 236:1 237:1 238:1 239:1 240:1 241:1 242:1 243:1 245:1 246:1 247:1 248:1 249:1 250:1 251:1 252:1 253:1 254:1 255:1 
1 2:1 3:1 6:1 13:1 15:1 18:1 19:1 21:1 22:1 23:1 24:1 25:1 26:1 27:1 28:1 29:1 31:1 33:1 36:1 41:1 42:1 43:1 44:1 48:1 60:1 61:1 62:1 63:1 67:1 68:1 72:1 73:1 74:1 79:1 83:1 84:1 85:1 87:1 88:1 90:1 91:1 94:1 95:1 96:1 107:1 108:1 109:1 122:1 123:1 124:1 126:1 127:1 130:1 131:1 132:1 133:1 134:1 135:1 136:1 140:1 141:1 142:1 143:1 146:1 147:1 148:1 149:1 150:1 151:1 152:1 153:1 154:1 155:1 156:1 157:1 162:1 163:1 164:1 165:1 166:1 167:1 168:1 169:1 170:1 171:1 175:1 179:1 180:1 188:1 189:1 192:1 196:1 208:1 223:1 227:1 228:1 229:1 230:1 231:1 234:1 235:1 236:1 237:1 238:1 239:1 241:1 242:1 243:1 244:1 245:1 246:1 247:1 248:1 249:1 250:1 251:1 252:1 253:1 254:1 255:1 
1 1:1 8:1 9:1 14:1 15:1 16:1 17:1 18:1 19:1 20:1 24:1 25:1 30:1 31:1 35:1 45:1 46:1 51:1 52:1 53:1 54:1 55:1 56:1 57:1 58:1 62:1 66:1 76:1 77:1 78:1 80:1 81:1 82:1 85:1 86:1 88:1 90:1 91:1 92:1 102:1 103:1 107:1 109:1 110:1 111:1 112:1 124:1 128:1 129:1 130:1 132:1 133:1 134:1 135:1 136:1 137:1 138:1 139:1 140:1 141:1 143:1 145:1 146:1 147:1 148:1 149:1 150:1 156:1 157:1 162:1 163:1 170:1 172:1 173:1 174:1 175:1 179:1 181:1 183:1 184:1 185:1 186:1 188:1 190:1 191:1 192:1 208:1 211:1 212:1 213:1 214:1 215:1 216:1 217:1 218:1 219:1 223:1 235:1 239:1 240:1 241:1 242:1 243:1 244:1 245:1 246:1 247:1 248:1 249:1 250:1 251:1 252:1 253:1 254:1 255:1 
1 4:1 6:1 7:1 9:1 10:1 12:1 13:1 21:1 27:1 32:1 33:1 35:1 36:1 38:1 42:1 43:1 44:1 46:1 47:1 48:1 49:1 51:1 52:1 53:1 54:1 55:1 56:1 57:1 58:1 59:1 60:1 63:1 68:1 69:1 70:1 71:1 72:1 74:1 79:1 80:1 86:1 89:1 92:1 95:1 104:1 105:1 106:1 108:1 110:1 115:1 121:1 122:1 123:1 124:1 128:1 131:1 132:1 133:1 136:1 139:1 140:1 141:1 142:1 143:1 147:1 148:1 158:1 160:1 161:1 163:1 164:1 165:1 167:1 168:1 169:1 172:1 173:1 175:1 191:1 208:1 209:1 210:1 213:1 214:1 215:1 216:1 217:1 218:1 219:1 220:1 221:1 222:1 223:1 224:1 225:1 226:1 227:1 228:1 229:1 230:1 231:1 232:1 233:1 234:1 235:1 236:1 240:1 241:1 251:1 252:1 253:1 254:1 255:1 
0.8299365532891964 0:1 1:1 3:1 9:1 13:1 29:1 30:1 31:1 48:1 51:1 52:1 56:1 57:1 58:1 62:1 68:1 69:1 70:1 71:1 72:1 73:1 74:1 75:1 76:1 77:1 84:1 91:1 94:1 99:1 104:1 110:1 111:1 112:1 119:1 120:1 121:1 122:1 123:1 124:1 125:1 130:1 131:1 132:1 133:1 134:1 135:1 136:1 137:1 138:1 139:1 140:1 141:1 142:1 143:1 160:1 161:1 169:1 170:1 171:1 172:1 173:1 174:1 176:1 177:1 182:1 186:1 192:1 193:1 205:1 208:1 209:1 225:1 226:1 227:1 228:1 229:1 230:1 231:1 232:1 233:1 234:1 235:1 236:1 237:1 238:1 239:1 241:1 242:1 243:1 244:1 245:1 246:1 247:1 248:1 249:1 250:1 251:1 252:1 253:1 255:1 
1 0:1 1:1 3:1 7:1 8:1 9:1 12:1 13:1 14:1 19:1 28:1 29:1 32:1 34:1 44:1 45:1 48:1 49:1 50:1 51:1 52:1 53:1 54:1 55:1 60:1 64:1 66:1 67:1 68:1 69:1 70:1 71:1 72:1 73:1 74:1 75:1 79:1 80:1 81:1 83:1 84:1 85:1 86:1 87:1 88:1 89:1 90:1 91:1 92:1 95:1 96:1 99:1 100:1 104:1 105:1 106:1 107:1 108:1 111:1 113:1 114:1 115:1 116:1 117:1 118:1 119:1 120:1 121:1 122:1 123:1 124:1 126:1 127:1 131:1 132:1 133:1 134:1 135:1 137:1 138:1 139:1 140:1 141:1 143:1 144:1 146:1 149:1 151:1 152:1 153:1 156:1 157:1 159:1 161:1 175:1 191:1 202:1 207:1 208:1 209:1 210:1 211:1 212:1 213:1 214:1 215:1 216:1 217:1 218:1 219:1 220:1 221:1 222:1 223:1 224:1 225:1 226:1 227:1 228:1 229:1 230:1 231:1 233:1 234:1 235:1 236:1 237:1 238:1 239:1 243:1 244:1 245:1 246:1 247:1 
0.5872048688691393 11:1 12:1 13:1 31:1 35:1 36:1 37:1 38:1 39:1 40:1 41:1 42:1 43:1 44:1 48:1 61:1 62:1 63:1 64:1 67:1 68:1 70:1 71:1 75:1 77:1 82:1 95:1 96:1 97:1 98:1 99:1 100:1 101:1 102:1 103:1 104:1 105:1 106:1 107:1 108:1 109:1 112:1 113:1 120:1 121:1 122:1 126:1 127:1 142:1 143:1 149:1 154:1 158:1 159:1 160:1 161:1 167:1 168:1 174:1 175:1 176:1 177:1 190:1 191:1 192:1 193:1 195:1 196:1 197:1 198:1 199:1 200:1 201:1 202:1 203:1 206:1 207:1 224:1 225:1 226:1 227:1 228:1 229:1 230:1 231:1 232:1 233:1 234:1 235:1 236:1 237:1 238:1 239:1 240:1 241:1 242:1 243:1 244:1 245:1 246:1 247:1 248:1 249:1 250:1 251:1 252:1 253:1 254:1 255:1 
0.6105343544033277 1:1 2:1 5:1 9:1 11:1 12:1 14:1 21:1 26:1 27:1 28:1 29:1 30:1 31:1 32:1 33:1 34:1 35:1 36:1 38:1 39:1 40:1 41:1 42:1 50:1 51:1 55:1 59:1 61:1 66:1 67:1 70:1 71:1 72:1 74:1 77:1 78:1 80:1 81:1 83:1 84:1 95:1 102:1 103:1 104:1 105:1 106:1 107:1 108:1 109:1 110:1 111:1 112:1 113:1 114:1 115:1 116:1 117:1 118:1 119:1 120:1 121:1 122:1 126:1 127:1 129:1 130:1 135:1 138:1 139:1 140:1 141:1 142:1 143:1 144:1 148:1 149:1 150:1 151:1 152:1 153:1 154:1 156:1 157:1 158:1 159:1 160:1 168:1 169:1 170:1 175:1 176:1 191:1 207:1 208:1 209:1 210:1 211:1 212:1 213:1 214:1 215:1 216:1 217:1 218:1 219:1 220:1 221:1 222:1 223:1 224:1 225:1 226:1 227:1 228:1 229:1 230:1 231:1 232:1 233:1 234:1 235:1 236:1 237:1 238:1 239:1 241:1 242:1 243:1 244:1 245:1 246:1 249:1 250:1 251:1 252:1 253:1 
1 1:1 2:1 5:1 7:1 8:1 9:1 14:1 15:1 16:1 17:1 19:1 21:1 22:1 23:1 24:1 25:1 33:1 36:1 37:1 50:1 54:1 66:1 67:1 71:1 72:1 73:1 74:1 75:1 76:1 77:1 78:1 79:1 82:1 83:1 87:1 88:1 89:1 90:1 92:1 94:1 95:1 98:1 103:1 104:1 105:1 107:1 110:1 111:1 114:1 116:1 118:1 130:1 131:1 132:1 133:1 134:1 135:1 136:1 137:1 138:1 139:1 140:1 141:1 142:1 143:1 145:1 146:1 152:1 153:1 154:1 155:1 156:1 157:1 158:1 159:1 161:1 162:1 163:1 164:1 168:1 169:1 170:1 171:1 172:1 175:1 181:1 182:1 185:1 188:1 191:1 192:1 193:1 195:1 201:1 202:1 203:1 207:1 208:1 209:1 221:1 228:1 229:1 230:1 231:1 234:1 235:1 237:1 238:1 239:1 240:1 241:1 255:1 
1 5:1 6:1 10:1 16:1 17:1 18:1 19:1 20:1 21:1 22:1 26:1 31:1 32:1 46:1 47:1 48:1 51:1 52:1 53:1 54:1 55:1 56:1 57:1 58:1 59:1 60:1 67:1 68:1 69:1 70:1 71:1 72:1 73:1 74:1 75:1 76:1 81:1 86:1 87:1 91:1 92:1 93:1 94:1 95:1 96:1 97:1 98:1 99:1 100:1 101:1 102:1 103:1 104:1 105:1 106:1 107:1 108:1 109:1 119:1 120:1 121:1 122:1 123:1 124:1 125:1 126:1 128:1 143:1 144:1 159:1 160:1 175:1 176:1 179:1 180:1 181:1 182:1 183:1 184:1 185:1 186:1 187:1 191:1 192:1 207:1 208:1 209:1 210:1 211:1 212:1 213:1 214:1 215:1 216:1 217:1 218:1 219:1 220:1 221:1 222:1 223:1 224:1 225:1 226:1 227:1 228:1 229:1 230:1 231:1 232:1 234:1 235:1 236:1 237:1 238:1 239:1 242:1 243:1 244:1 245:1 247:1 248:1 249:1 254:1 255:1 
0.6302118685824103 0:1 1:1 4:1 5:1 6:1 7:1 14:1 15:1 20:1 21:1 23:1 30:1 36:1 39:1 46:1 52:1 55:1 62:1 68:1 69:1 70:1 71:1 72:1 73:1 74:1 75:1 78:1 84:1 85:1 89:1 90:1 91:1 92:1 93:1 94:1 95:1 96:1 108:1 110:1 112:1 128:1 130:1 131:1 132:1 133:1 134:1 135:1 136:1 137:1 138:1 139:1 140:1 141:1 142:1 143:1 144:1 145:1 146:1 156:1 157:1 158:1 161:1 190:1 192:1 193:1 208:1 209:1 212:1 213:1 214:1 215:1 216:1 217:1 218:1 219:1 220:1 223:1 224:1 225:1 226:1 227:1 228:1 229:1 230:1 231:1 232:1 233:1 234:1 235:1 236:1 237:1 238:1 239:1 240:1 241:1 242:1 243:1 244:1 245:1 246:1 247:1 248:1 249:1 250:1 251:1 252:1 253:1 254:1 255:1 
1 2:1 3:1 4:1 6:1 7:1 13:1 14:1 18:1 19:1 25:1 26:1 27:1 29:1 41:1 43:1 45:1 46:1 47:1 48:1 49:1 53:1 59:1 61:1 68:1 69:1 70:1 71:1 72:1 73:1 74:1 75:1 76:1 83:1 93:1 105:1 109:1 110:1 113:1 128:1 130:1 131:1 132:1 133:1 134:1 135:1 136:1 137:1 138:1 139:1 140:1 141:1 142:1 143:1 145:1 146:1 147:1 148:1 149:1 150:1 151:1 152:1 153:1 154:1 155:1 156:1 157:1 158:1 161:1 162:1 163:1 164:1 165:1 166:1 167:1 168:1 169:1 170:1 171:1 172:1 173:1 177:1 189:1 191:1 192:1 193:1 194:1 195:1 196:1 197:1 198:1 202:1 203:1 204:1 205:1 208:1 213:1 214:1 215:1 219:1 220:1 224:1 225:1 226:1 227:1 239:1 241:1 242:1 243:1 244:1 245:1 246:1 247:1 248:1 249:1 250:1 251:1 252:1 253:1 254:1 255:1 
1 2:1 11:1 12:1 17:1 18:1 27:1 28:1 29:1 30:1 31:1 34:1 35:1 36:1 37:1 38:1 39:1 40:1 41:1 42:1 43:1 44:1 45:1 49:1 50:1 61:1 62:1 63:1 64:1 65:1 66:1 70:1 80:1 93:1 98:1 99:1 100:1 101:1 102:1 103:1 104:1 105:1 106:1 107:1 108:1 109:1 110:1 112:1 113:1 114:1 115:1 116:1 117:1 118:1 124:1 125:1 126:1 128:1 129:1 130:1 131:1 132:1 141:1 142:1 143:1 145:1 152:1 153:1 161:1 168:1 175:1 176:1 180:1 181:1 187:1 191:1 192:1 207:1 208:1 209:1 210:1 211:1 212:1 213:1 214:1 215:1 216:1 217:1 218:1 219:1 220:1 221:1 222:1 223:1 225:1 226:1 227:1 228:1 229:1 230:1 231:1 232:1 233:1 234:1 235:1 236:1 237:1 238:1 239:1 243:1 244:1 245:1 247:1 248:1 253:1 254:1 
0.00987123453638848 0:1 1:1 2:1 3:1 8:1 13:1 16:1 18:1 19:1 20:1 21:1 22:1 23:1 24:1 25:1 26:1 29:1 34:1 35:1 41:1 42:1 43:1 48:1 49:1 50:1 62:1 63:1 68:1 69:1 70:1 71:1 74:1 75:1 76:1 79:1 81:1 84:1 90:1 91:1 92:1 95:1 97:1 98:1 99:1 100:1 110:1 112:1 113:1 114:1 115:1 116:1 117:1 118:1 119:1 120:1 129:1 130:1 131:1 132:1 133:1 134:1 135:1 138:1 139:1 140:1 143:1 145:1 146:1 147:1 148:1 149:1 150:1 151:1 152:1 153:1 154:1 155:1 156:1 157:1 159:1 164:1 169:1 170:1 172:1 186:1 187:1 188:1 207:1 208:1 209:1 210:1 211:1 223:1 224:1 225:1 226:1 227:1 228:1 229:1 230:1 231:1 232:1 233:1 234:1 235:1 236:1 237:1 240:1 241:1 242:1 243:1 244:1 245:1 246:1 247:1 248:1 249:1 250:1 251:1 252:1 253:1 254:1 255:1 
1 0:1 4:1 5:1 20:1 21:1 26:1 28:1 29:1 30:1 37:1 46:1 51:1 52:1 53:1 54:1 55:1 56:1 57:1 58:1 59:1 64:1 65:1 66:1 68:1 69:1 72:1 73:1 74:1 75:1 76:1 77:1 80:1 81:1 82:1 83:1 84:1 85:1 86:1 87:1 88:1 89:1 90:1 91:1 92:1 93:1 94:1 96:1 102:1 103:1 104:1 105:1 106:1 107:1 108:1 109:1 110:1 113:1 126:1 127:1 129:1 130:1 131:1 132:1 133:1 134:1 135:1 136:1 137:1 138:1 139:1 140:1 141:1 142:1 143:1 150:1 159:1 160:1 162:1 163:1 164:1 165:1 166:1 167:1 168:1 169:1 170:1 171:1 172:1 173:1 174:1 175:1 176:1 184:1 185:1 186:1 211:1 212:1 213:1 214:1 215:1 216:1 238:1 240:1 241:1 242:1 243:1 244:1 245:1 246:1 247:1 248:1 249:1 250:1 251:1 252:1 253:1 254:1 255:1 
1 2:1 3:1 4:1 5:1 6:1 7:1 8:1 9:1 18:1 19:1 26:1 27:1 32:1 38:1 39:1 42:1 43:1 48:1 50:1 59:1 60:1 64:1 66:1 71:1 72:1 73:1 74:1 75:1 76:1 80:1 81:1 82:1 90:1 91:1 93:1 94:1 109:1 113:1 114:1 115:1 116:1 117:1 118:1 119:1 120:1 121:1 122:1 123:1 124:1 125:1 129:1 130:1 131:1 132:1 133:1 134:1 135:1 136:1 137:1 138:1 139:1 140:1 141:1 149:1 156:1 158:1 162:1 163:1 165:1 172:1 173:1 174:1 178:1 179:1 180:1 181:1 182:1 183:1 184:1 185:1 186:1 187:1 188:1 189:1 190:1 192:1 194:1 195:1 196:1 200:1 201:1 205:1 208:1 224:1 239:1 240:1 241:1 242:1 243:1 253:1 254:1 255:1 
1 1:1 6:1 11:1 16:1 22:1 27:1 28:1 29:1 38:1 43:1 45:1 50:1 51:1 52:1 53:1 54:1 55:1 56:1 57:1 58:1 59:1 60:1 62:1 63:1 65:1 79:1 80:1 81:1 85:1 90:1 93:1 96:1 100:1 101:1 110:1 111:1 128:1 129:1 130:1 131:1 132:1 133:1 134:1 135:1 136:1 137:1 138:1 139:1 142:1 144:1 145:1 158:1 159:1 162:1 163:1 164:1 171:1 172:1 173:1 175:1 180:1 181:1 182:1 183:1 184:1 185:1 187:1 188:1 189:1 191:1 193:1 199:1 200:1 201:1 208:1 223:1 236:1 239:1 240:1 241:1 242:1 243:1 244:1 245:1 246:1 247:1 248:1 249:1 250:1 251:1 252:1 253:1 254:1 255:1 
1 0:1 2:1 11:1 12:1 18:1 19:1 22:1 24:1 25:1 29:1 32:1 33:1 34:1 35:1 38:1 40:1 41:1 46:1 47:1 48:1 49:1 54:1 56:1 57:1 58:1 59:1 60:1 61:1 62:1 63:1 65:1 68:1 69:1 70:1 71:1 72:1 73:1 78:1 79:1 84:1 85:1 87:1 88:1 89:1 92:1 96:1 112:1 113:1 114:1 115:1 116:1 117:1 118:1 119:1 120:1 121:1 122:1 123:1 124:1 125:1 127:1 131:1 132:1 133:1 138:1 139:1 140:1 167:1 168:1 175:1 191:1 192:1 193:1 197:1 198:1 199:1 200:1 201:1 202:1 203:1 204:1 208:1 209:1 210:1 211:1 212:1 213:1 214:1 215:1 216:1 217:1 218:1 219:1 220:1 221:1 222:1 223:1 224:1 225:1 226:1 227:1 228:1 229:1 230:1 231:1 232:1 233:1 234:1 235:1 236:1 237:1 238:1 239:1 242:1 243:1 244:1 245:1 254:1 255:1 
0.4991452577375115 0:1 8:1 9:1 10:1 12:1 14:1 15:1 26:1 32:1 35:1 36:1 37:1 38:1 39:1 40:1 41:1 42:1 43:1 44:1 45:1 47:1 48:1 50:1 51:1 63:1 65:1 66:1 69:1 79:1 82:1 85:1 112:1 113:1 114:1 115:1 116:1 117:1 118:1 119:1 120:1 121:1 122:1 123:1 124:1 125:1 126:1 127:1 129:1 130:1 131:1 132:1 133:1 134:1 135:1 136:1 137:1 138:1 139:1 140:1 141:1 142:1 143:1 144:1 146:1 147:1 148:1 149:1 156:1 157:1 158:1 160:1 165:1 166:1 167:1 168:1 169:1 170:1 171:1 174:1 176:1 184:1 185:1 189:1 190:1 211:1 212:1 213:1 214:1 215:1 216:1 217:1 218:1 219:1 224:1 225:1 226:1 227:1 228:1 229:1 230:1 231:1 232:1 233:1 234:1 235:1 236:1 237:1 238:1 239:1 240:1 241:1 242:1 243:1 244:1 245:1 246:1 247:1 248:1 249:1 251:1 252:1 253:1 254:1 255:1 
1 0:1 4:1 5:1 6:1 7:1 12:1 14:1 15:1 20:1 25:1 26:1 27:1 28:1 31:1 38:1 48:1 49:1 65:1 68:1 69:1 70:1 71:1 72:1 73:1 74:1 75:1 76:1 78:1 79:1 81:1 85:1 86:1 91:1 92:1 97:1 108:1 113:1 114:1 115:1 116:1 117:1 118:1 119:1 120:1 121:1 122:1 123:1 124:1 125:1 126:1 127:1 128:1 129:1 130:1 131:1 135:1 136:1 137:1 138:1 139:1 140:1 142:1 143:1 146:1 147:1 148:1 149:1 150:1 159:1 164:1 176:1 192:1 196:1 197:1 198:1 199:1 200:1 201:1 202:1 203:1 204:1 207:1 208:1 209:1 210:1 211:1 212:1 213:1 214:1 215:1 216:1 217:1 218:1 219:1 220:1 221:1 222:1 223:1 224:1 225:1 226:1 227:1 228:1 229:1 235:1 236:1 237:1 238:1 239:1 250:1 251:1 252:1 253:1 254:1 255:1 
1 0:1 1:1 3:1 4:1 6:1 11:1 12:1 14:1 15:1 16:1 22:1 24:1 27:1 29:1 30:1 31:1 38:1 42:1 43:1 47:1 52:1 64:1 65:1 68:1 69:1 70:1 71:1 72:1 73:1 74:1 75:1 78:1 79:1 80:1 81:1 83:1 84:1 90:1 95:1 96:1 103:1 106:1 107:1 108:1 109:1 113:1 114:1 115:1 116:1 117:1 118:1 119:1 120:1 121:1 122:1 123:1 124:1 125:1 126:1 129:1 132:1 133:1 134:1 136:1 138:1 139:1 140:1 141:1 142:1 143:1 144:1 159:1 160:1 161:1 165:1 172:1 175:1 176:1 180:1 183:1 184:1 185:1 186:1 187:1 191:1 192:1 193:1 194:1 195:1 196:1 197:1 198:1 199:1 200:1 201:1 202:1 203:1 204:1 205:1 206:1 207:1 208:1 209:1 210:1 211:1 212:1 213:1 214:1 215:1 216:1 217:1 218:1 219:1 220:1 221:1 222:1 223:1 224:1 225:1 226:1 227:1 228:1 229:1 230:1 237:1 238:1 239:1 240:1 241:1 242:1 244:1 245:1 246:1 247:1 
1 2:1 15:1 20:1 21:1 22:1 23:1 24:1 25:1 26:1 27:1 28:1 30:1 34:1 46:1 47:1 48:1 49:1 50:1 51:1 53:1 54:1 55:1 56:1 57:1 58:1 59:1 62:1 64:1 65:1 66:1 67:1 69:1 70:1 71:1 72:1 73:1 74:1 75:1 80:1 81:1 82:1 84:1 85:1 86:1 87:1 88:1 89:1 90:1 91:1 94:1 100:1 101:1 104:1 105:1 106:1 107:1 110:1 111:1 112:1 114:1 126:1 128:1 129:1 130:1 132:1 133:1 134:1 135:1 136:1 137:1 138:1 139:1 140:1 142:1 143:1 145:1 146:1 148:1 149:1 150:1 151:1 152:1 153:1 154:1 155:1 156:1 157:1 158:1 159:1 160:1 161:1 162:1 173:1 174:1 175:1 176:1 177:1 178:1 180:1 181:1 183:1 184:1 185:1 187:1 189:1 190:1 191:1 193:1 194:1 205:1 206:1 207:1 209:1 210:1 214:1 218:1 221:1 222:1 223:1 224:1 226:1 228:1 229:1 230:1 231:1 234:1 237:1 238:1 240:1 242:1 253:1 254:1 255:1 
1 0:1 6:1 7:1 8:1 9:1 11:1 12:1 13:1 22:1 27:1 29:1 32:1 33:1 34:1 35:1 36:1 37:1 38:1 39:1 40:1 41:1 42:1 45:1 50:1 51:1 52:1 53:1 61:1 66:1 67:1 68:1 69:1 75:1 77:1 78:1 79:1 82:1 85:1 86:1 87:1 94:1 99:1 100:1 101:1 102:1 103:1 104:1 105:1 106:1 107:1 108:1 109:1 110:1 111:1 116:1 117:1 119:1 123:1 125:1 126:1 131:1 132:1 133:1 135:1 139:1 141:1 142:1 143:1 148:1 149:1 150:1 151:1 152:1 153:1 154:1 155:1 157:1 158:1 162:1 165:1 169:1 170:1 173:1 174:1 175:1 176:1 177:1 178:1 191:1 192:1 193:1 194:1 202:1 203:1 204:1 207:1 220:1 223:1 230:1 231:1 232:1 233:1 234:1 235:1 236:1 237:1 238:1 239:1 240:1 241:1 242:1 243:1 244:1 245:1 246:1 247:1 248:1 249:1 250:1 251:1 252:1 253:1 254:1 
0.1188890232438831 0:1 3:1 4:1 8:1 12:1 15:1 19:1 24:1 28:1 31:1 35:1 40:1 44:1 45:1 51:1 52:1 53:1 54:1 55:1 56:1 63:1 68:1 69:1 70:1 71:1 72:1 73:1 74:1 75:1 79:1 82:1 83:1 84:1 85:1 86:1 89:1 91:1 92:1 95:1 99:1 100:1 102:1 107:1 108:1 115:1 116:1 117:1 118:1 119:1 120:1 121:1 122:1 123:1 124:1 125:1 126:1 129:1 130:1 131:1 132:1 133:1 134:1 135:1 136:1 137:1 138:1 139:1 140:1 141:1 142:1 144:1 148:1 154:1 158:1 159:1 160:1 161:1 166:1 167:1 168:1 174:1 175:1 176:1 190:1 191:1 192:1 196:1 197:1 198:1 199:1 200:1 201:1 202:1 203:1 204:1 206:1 207:1 208:1 209:1 212:1 213:1 214:1 215:1 216:1 217:1 218:1 219:1 220:1 221:1 222:1 223:1 226:1 227:1 228:1 229:1 230:1 231:1 232:1 233:1 234:1 235:1 236:1 240:1 241:1 242:1 243:1 247:1 248:1 249:1 250:1 251:1 252:1 253:1 254:1 255:1 
0.1814363087671624 1:1 2:1 11:1 14:1 20:1 21:1 22:1 23:1 24:1 25:1 26:1 27:1 28:1 29:1 30:1 31:1 32:1 34:1 35:1 36:1 37:1 38:1 39:1 40:1 41:1 42:1 43:1 46:1 50:1 61:1 62:1 63:1 78:1 79:1 82:1 96:1 97:1 98:1 99:1 100:1 101:1 102:1 103:1 104:1 105:1 106:1 107:1 108:1 109:1 110:1 111:1 112:1 113:1 121:1 122:1 123:1 124:1 125:1 126:1 127:1 128:1 131:1 144:1 160:1 167:1 168:1 169:1 185:1 193:1 212:1 213:1 214:1 215:1 216:1 217:1 218:1 223:1 224:1 225:1 226:1 227:1 228:1 240:1 241:1 242:1 243:1 244:1 245:1 246:1 247:1 248:1 249:1 250:1 251:1 252:1 253:1 254:1 255:1 
0.9912763514184887 2:1 3:1 8:1 11:1 13:1 18:1 19:1 29:1 30:1 31:1 34:1 35:1 39:1 50:1 51:1 56:1 57:1 58:1 59:1 60:1 61:1 65:1 66:1 67:1 76:1 77:1 82:1 84:1 85:1 86:1 87:1 88:1 89:1 90:1 91:1 94:1 95:1 96:1 97:1 109:1 111:1 112:1 126:1 127:1 128:1 130:1 131:1 132:1 134:1 138:1 142:1 143:1 144:1 149:1 150:1 151:1 152:1 153:1 154:1 155:1 156:1 159:1 160:1 164:1 165:1 166:1 169:1 170:1 171:1 172:1 175:1 176:1 179:1 188:1 191:1 192:1 197:1 207:1 208:1 223:1 224:1 225:1 226:1 227:1 228:1 229:1 230:1 231:1 232:1 233:1 234:1 235:1 236:1 237:1 238:1 239:1 240:1 241:1 242:1 243:1 244:1 245:1 246:1 247:1 248:1 249:1 250:1 251:1 252:1 253:1 254:1 255:1 
1 2:1 6:1 8:1 10:1 12:1 16:1 22:1 28:1 29:1 32:1 44:1 45:1 49:1 50:1 51:1 52:1 53:1 54:1 55:1 56:1 57:1 58:1 59:1 60:1 65:1 66:1 71:1 76:1 78:1 81:1 83:1 84:1 85:1 87:1 89:1 90:1 95:1 96:1 97:1 99:1 100:1 101:1 105:1 106:1 107:1 111:1 124:1 128:1 133:1 134:1 135:1 136:1 137:1 138:1 139:1 140:1 143:1 144:1 146:1 147:1 148:1 149:1 150:1 151:1 152:1 153:1 159:1 161:1 162:1 163:1 171:1 172:1 173:1 175:1 176:1 178:1 179:1 180:1 181:1 182:1 183:1 184:1 185:1 186:1 187:1 188:1 191:1 198:1 199:1 200:1 207:1 223:1 227:1 228:1 229:1 234:1 235:1 236:1 239:1 240:1 241:1 242:1 243:1 244:1 245:1 246:1 247:1 248:1 249:1 250:1 251:1 252:1 253:1 254:1 255:1 
1 4:1 6:1 7:1 8:1 15:1 20:1 28:1 31:1 35:1 36:1 37:1 38:1 39:1 40:1 41:1 42:1 43:1 44:1 45:1 46:1 48:1 49:1 51:1 60:1 61:1 62:1 66:1 77:1 78:1 83:1 84:1 97:1 98:1 99:1 100:1 101:1 102:1 103:1 104:1 105:1 106:1 107:1 108:1 109:1 110:1 112:1 125:1 128:1 132:1 139:1 141:1 144:1 150:1 151:1 152:1 160:1 175:1 176:1 182:1 183:1 188:1 192:1 208:1 209:1 210:1 211:1 212:1 213:1 214:1 215:1 216:1 217:1 218:1 219:1 220:1 221:1 222:1 223:1 224:1 225:1 226:1 227:1 228:1 229:1 230:1 231:1 232:1 233:1 234:1 235:1 236:1 237:1 238:1 239:1 251:1 
1 4:1 9:1 10:1 12:1 13:1 16:1 17:1 18:1 19:1 20:1 21:1 22:1 23:1 24:1 25:1 26:1 27:1 28:1 29:1 30:1 31:1 32:1 33:1 34:1 36:1 42:1 43:1 44:1 45:1 46:1 47:1 53:1 54:1 55:1 57:1 58:1 63:1 66:1 68:1 69:1 70:1 71:1 72:1 73:1 74:1 83:1 84:1 85:1 86:1 87:1 88:1 89:1 90:1 96:1 97:1 112:1 113:1 115:1 126:1 129:1 130:1 131:1 132:1 133:1 134:1 135:1 136:1 137:1 139:1 140:1 141:1 142:1 143:1 144:1 147:1 149:1 150:1 151:1 152:1 153:1 155:1 156:1 157:1 158:1 166:1 167:1 168:1 175:1 191:1 194:1 196:1 197:1 200:1 203:1 204:1 224:1 225:1 226:1 227:1 228:1 229:1 230:1 231:1 232:1 233:1 234:1 235:1 236:1 237:1 238:1 239:1 240:1 241:1 242:1 243:1 244:1 245:1 246:1 247:1 248:1 249:1 250:1 251:1 252:1 253:1 254:1 255:1 
0.3291884802001249 0:1 1:1 4:1 6:1 7:1 10:1 14:1 15:1 16:1 17:1 18:1 20:1 22:1 23:1 26:1 29:1 31:1 32:1 34:1 43:1 48:1 49:1 50:1 53:1 55:1 56:1 57:1 58:1 59:1 60:1 61:1 62:1 63:1 65:1 72:1 73:1 74:1 81:1 82:1 83:1 84:1 85:1 86:1 94:1 95:1 96:1 99:1 100:1 101:1 102:1 103:1 104:1 105:1 106:1 107:1 108:1 109:1 110:1 111:1 112:1 113:1 114:1 115:1 116:1 117:1 118:1 119:1 120:1 121:1 122:1 123:1 124:1 125:1 126:1 127:1 128:1 131:1 132:1 134:1 137:1 138:1 139:1 140:1 141:1 142:1 143:1 159:1 160:1 162:1 163:1 164:1 165:1 166:1 167:1 168:1 169:1 170:1 171:1 172:1 175:1 176:1 178:1 183:1 184:1 189:1 191:1 192:1 199:1 200:1 201:1 207:1 208:1 222:1 223:1 224:1 238:1 239:1 240:1 254:1 255:1 
1 1:1 14:1 16:1 21:1 22:1 23:1 24:1 25:1 26:1 27:1 28:1 33:1 36:1 37:1 47:1 48:1 49:1 52:1 53:1 54:1 55:1 56:1 57:1 58:1 59:1 60:1 61:1 62:1 63:1 64:1 65:1 68:1 69:1 71:1 73:1 74:1 76:1 78:1 81:1 83:1 84:1 88:1 95:1 99:1 100:1 101:1 102:1 103:1 104:1 105:1 106:1 107:1 108:1 109:1 111:1 114:1 115:1 116:1 117:1 118:1 119:1 120:1 121:1 122:1 123:1 124:1 125:1 144:1 145:1 148:1 149:1 159:1 160:1 161:1 177:1 182:1 183:1 184:1 185:1 186:1 187:1 188:1 193:1 195:1 205:1 206:1 207:1 208:1 209:1 210:1 211:1 212:1 213:1 214:1 215:1 216:1 217:1 218:1 219:1 220:1 221:1 222:1 223:1 224:1 225:1 226:1 227:1 228:1 229:1 230:1 231:1 232:1 233:1 234:1 235:1 236:1 237:1 238:1 239:1 241:1 242:1 243:1 244:1 245:1 246:1 247:1 248:1 249:1 250:1 
1 1:1 3:1 9:1 10:1 11:1 12:1 13:1 14:1 15:1 17:1 19:1 25:1 31:1 32:1 33:1 34:1 35:1 36:1 46:1 47:1 48:1 49:1 51:1 52:1 53:1 54:1 55:1 56:1 57:1 58:1 60:1 61:1 63:1 64:1 65:1 68:1 69:1 70:1 71:1 72:1 73:1 74:1 75:1 88:1 90:1 91:1 92:1 93:1 95:1 98:1 99:1 100:1 101:1 102:1 103:1 104:1 105:1 109:1 110:1 111:1 112:1 114:1 115:1 116:1 117:1 118:1 119:1 120:1 121:1 122:1 127:1 140:1 141:1 142:1 144:1 145:1 152:1 153:1 160:1 176:1 180:1 181:1 182:1 201:1 207:1 208:1 209:1 210:1 211:1 212:1 213:1 214:1 215:1 216:1 217:1 218:1 219:1 220:1 221:1 222:1 223:1 224:1 225:1 226:1 227:1 228:1 229:1 230:1 231:1 232:1 233:1 234:1 235:1 236:1 237:1 238:1 239:1 240:1 241:1 242:1 244:1 251:1 252:1 253:1 254:1 
1 0:1 1:1 2:1 3:1 4:1 5:1 6:1 7:1 9:1 10:1 11:1 14:1 15:1 25:1 41:1 45:1 46:1 47:1 48:1 49:1 50:1 51:1 52:1 53:1 54:1 57:1 62:1 63:1 64:1 68:1 69:1 70:1 71:1 72:1 73:1 74:1 75:1 76:1 79:1 80:1 81:1 82:1 83:1 84:1 85:1 86:1 87:1 89:1 90:1 91:1 92:1 93:1 99:1 105:1 108:1 109:1 114:1 118:1 119:1 124:1 126:1 127:1 130:1 131:1 132:1 133:1 134:1 135:1 136:1 137:1 138:1 139:1 140:1 141:1 142:1 146:1 149:1 150:1 151:1 158:1 160:1 162:1 176:1 177:1 183:1 185:1 191:1 192:1 193:1 207:1 211:1 212:1 213:1 214:1 215:1 217:1 218:1 219:1 220:1 223:1 224:1 225:1 226:1 227:1 228:1 229:1 230:1 231:1 233:1 234:1 235:1 236:1 237:1 244:1 245:1 246:1 247:1 248:1 249:1 250:1 251:1 253:1 254:1 255:1 
1 0:1 1:1 8:1 11:1 12:1 13:1 17:1 27:1 28:1 29:1 33:1 34:1 35:1 36:1 37:1 38:1 39:1 44:1 50:1 51:1 52:1 53:1 54:1 55:1 56:1 57:1 58:1 59:1 60:1 66:1 67:1 68:1 69:1 70:1 71:1 72:1 73:1 74:1 76:1 77:1 78:1 79:1 81:1 90:1 91:1 94:1 95:1 97:1 98:1 99:1 100:1 101:1 102:1 103:1 104:1 105:1 106:1 107:1 108:1 113:1 114:1 119:1 120:1 121:1 122:1 123:1 124:1 128:1 129:1 130:1 139:1 140:1 141:1 142:1 143:1 144:1 149:1 150:1 151:1 152:1 153:1 154:1 155:1 158:1 159:1 166:1 167:1 168:1 174:1 175:1 190:1 205:1 206:1 223:1 224:1 225:1 226:1 227:1 228:1 229:1 230:1 231:1 232:1 233:1 234:1 235:1 236:1 237:1 238:1 239:1 245:1 246:1 249:1 250:1 
0.7984580364189378 0:1 1:1 3:1 5:1 6:1 7:1 11:1 13:1 14:1 15:1 26:1 27:1 29:1 30:1 35:1 36:1 37:1 38:1 39:1 40:1 41:1 42:1 43:1 45:1 46:1 47:1 51:1 52:1 53:1 54:1 55:1 56:1 58:1 61:1 62:1 63:1 67:1 68:1 73:1 75:1 76:1 77:1 79:1 81:1 82:1 83:1 84:1 85:1 86:1 87:1 88:1 89:1 90:1 91:1 97:1 100:1 101:1 102:1 103:1 104:1 105:1 106:1 107:1 108:1 109:1 112:1 113:1 114:1 125:1 126:1 129:1 130:1 132:1 133:1 134:1 137:1 138:1 139:1 141:1 142:1 147:1 148:1 149:1 150:1 151:1 152:1 153:1 154:1 155:1 157:1 160:1 167:1 176:1 184:1 185:1 198:1 200:1 201:1 206:1 224:1 225:1 237:1 238:1 239:1 240:1 244:1 245:1 248:1 249:1 250:1 251:1 252:1 253:1 254:1 255:1 
1 3:1 15:1 19:1 24:1 25:1 31:1 35:1 38:1 41:1 43:1 47:1 50:1 51:1 52:1 54:1 55:1 56:1 57:1 58:1 59:1 61:1 62:1 63:1 64:1 65:1 66:1 67:1 68:1 69:1 71:1 72:1 73:1 74:1 75:1 76:1 82:1 83:1 84:1 85:1 86:1 87:1 88:1 89:1 90:1 91:1 94:1 96:1 98:1 107:1 114:1 115:1 116:1 117:1 118:1 119:1 120:1 121:1 122:1 123:1 124:1 125:1 131:1 132:1 133:1 134:1 135:1 136:1 137:1 139:1 140:1 141:1 142:1 144:1 153:1 154:1 162:1 175:1 186:1 187:1 190:1 191:1 192:1 193:1 194:1 195:1 196:1 197:1 198:1 199:1 200:1 207:1 208:1 209:1 210:1 211:1 212:1 213:1 214:1 215:1 216:1 217:1 218:1 219:1 220:1 221:1 222:1 223:1 224:1 225:1 226:1 227:1 228:1 229:1 230:1 231:1 232:1 233:1 234:1 235:1 236:1 237:1 238:1 239:1 249:1 250:1 251:1 
